0.010956037790
0.007323655300
0.011889486574
-0.025030694902
0.002856384264
0.028292817995
-0.018187379465
-0.028001751751
-0.029565123841
0.027396081015
0.003905700520
-0.014101564884
-0.022187184542
0.001754603349
0.011717899702
-0.027415478602
-0.029544580728
-0.022819625214
0.010614984669
-0.007686612662
-0.007400546689
0.005215040408
0.018300028518
-0.021371712908
-0.001102435868
0.025549037382
0.015368987806
0.021686987951
-0.022341027856
0.023848425597
0.013882497326
-0.018927933648
-0.001355787856
-0.017776256427
0.021783214062
0.025123404339
-0.028317091987
-0.014931980520
0.029819805175
0.015233466402
-0.009384620003
-0.028304023668
0.015407866798
-0.021100277081
0.013934327289
-0.014451066032
0.014678715728
-0.020996196195
0.001466381596
-0.029576536268
-0.025286335498
0.010325146839
-0.011186910793
-0.022369109094
-0.026383373886
-0.000321285392
-0.007427943870
0.002173319692
-0.031202401966
0.006576906890
0.014889967628
-0.006661911029
0.005539413076
0.011599496007
0.003542941762
0.019462099299
0.022873662412
0.008346105926
0.014191865921
-0.027331469581
-0.007304715458
0.027896510437
-0.013925933279
-0.014163983054
0.003309159772
-0.004099129699
-0.008035287261
0.021728409454
0.023125143722
0.014064695686
-0.006660627667
-0.001936785178
-0.024576345459
0.003376591485
-0.015644779429
0.014024141245
0.007162581198
-0.025184106082
0.003382068360
0.028980320320
0.025470813736
-0.011558521539
-0.029885685071
0.022870624438
0.027161259204
0.007663994096
-0.022671395913
-0.017290199175
0.031032215804
-0.017645955086
-0.004450201523
0.012041690759
0.020331855863
-0.001219311729
0.001170528238
-0.001986120362
0.019239338115
0.006485524122
0.008014722727
-0.012885370292
0.022261392325
-0.005750951357
0.030493929982
0.021616807207
-0.029713137075
-0.019251553342
0.018646989018
-0.013736411929
0.006047724281
-0.030802505091
0.009901629761
-0.015391587280
0.019502991810
0.004553460982
-0.010925685987
0.029701234773
0.023151930422
-0.024049531668
0.007323489524
0.012714130804
0.027105420828
0.026034707204
0.014946782961
0.015779983252
-0.006493968423
0.005420157686
0.027772953734
0.019557649270
-0.007207675837
-0.013907631859
0.021363660693
-0.027297489345
0.000153134752
0.025091299787
0.022043533623
-0.026592480019
-0.020348835737
-0.006722369697
-0.003582526930
-0.000730812317
-0.020412160084
-0.011958506890
0.009118421935
-0.002121038269
0.022855753079
-0.019189594314
-0.026993265375
-0.004181146622
-0.018475186080
0.030099604279
0.017552983016
0.017338043079
0.023290771991
0.003177640960
-0.004103475716
-0.030165985227
0.011761262082
-0.019126364961
0.029768310487
0.010608108714
-0.018160527572
0.018962852657
-0.028219779953
-0.028026828542
-0.010797617957
-0.015359993093
-0.015591038391
0.023570094258
-0.010537537746
-0.017840974033
-0.023305539042
-0.012527051382
0.000730858417
-0.026614757255
0.016342924908
0.003219964914
0.000140678487
0.002445230493
0.027747282758
-0.014141585678
0.025606406853
0.009963604622
-0.024778150022
0.017445661128
0.006930197123
0.027431191877
0.011089234613
-0.022718254477
0.026818124577
-0.017514204606
-0.014500485733
-0.022839630023
-0.007760199253
-0.012806487270
-0.011405363679
-0.007837853394
0.017533002421
-0.030173489824
0.016268655658
0.021828025579
-0.025065409020
0.018405077979
-0.009641959332
-0.013675551862
0.014840564691
0.022020284086
0.018707470968
0.026083899662
0.030387967825
0.020357120782
-0.028589049354
-0.024476293474
-0.016071405262
0.027712883428
-0.024438146502
0.002094171708
0.023454705253
0.028105147183
-0.003589244792
-0.019190359861
-0.001057545422
0.030812373385
-0.004679907579
-0.025258652866
-0.021222960204
0.005122040398
-0.016544725746
-0.011230826378
0.003492452903
0.004723119084
0.022595491260
0.007646369282
0.014799730852
0.028964120895
-0.012016338296
-0.004139367957
0.019694477320
-0.012365019880
0.017573950812
0.018873790279
0.024019375443
-0.017416138202
0.014557722956
-0.017067303881
0.005333628505
-0.011444566771
-0.007913668640
-0.011823724955
-0.025472875684
-0.021981760859
0.019474787638
0.028121650219
-0.017286328599
0.025185005739
-0.004685483407
-0.016477277502
0.011663929559
-0.023792140186
0.018984686583
-0.012696799822
0.029991285875
0.013272747397
-0.004436491523
-0.019106086344
-0.018307287246
-0.009082221426
0.000564528455
-0.013813432306
-0.017065316439
-0.018586507067
-0.015674518421
-0.016600675881
0.003414157545
-0.024552650750
-0.028102248907
0.030767247081
-0.000164035053
0.026732249185
0.011581704952
0.030489237979
-0.002150486922
0.018548028544
0.026602990925
-0.004678174853
-0.021137151867
-0.011865389533
-0.017186591402
0.001168357441
0.011239140294
0.005122864619
-0.025997374207
-0.030694784597
0.025722505525
0.018486008048
0.027674492449
-0.010464549996
0.009158183821
-0.027758864686
-0.016133595258
0.024177884683
0.026271201670
0.016317037866
-0.008749428205
-0.007219916675
-0.018968490884
0.020220110193
0.018017675728
-0.007539634127
0.017952632159
-0.022975474596
-0.000014519217
-0.019045095891
0.021122708917
-0.015285929665
0.025596596301
0.023752857000
0.026652386412
-0.016746822745
-0.009313077666
-0.001849945169
0.030181145296
0.001273615519
-0.019624227658
-0.020710567012
-0.005220007617
-0.006916744169
0.001632114640
0.015748880804
0.002598616527
-0.030020929873
-0.013257112354
-0.008387431502
-0.016521416605
0.013460398652
-0.009248355404
0.014269258827
-0.008869481273
-0.029461821541
0.010429754853
-0.017660515383
-0.025897262618
0.016193447635
-0.007960898802
0.008831495419
0.025212567300
-0.028857579455
0.028899403289
-0.022631067783
-0.004946243018
-0.006966157351
-0.006237613969
0.011661203578
0.008398259990
0.018067212775
0.005114598665
0.015625908971
0.005606235005
-0.024568850175
0.019747583196
0.029966033995
-0.006956187543
-0.006992294919
-0.000454375928
0.028670262545
0.000410662760
-0.027883145958
0.007757110521
0.005323954392
0.017765259370
0.006743347738
-0.017529422417
-0.025066332892
0.005937750917
-0.000102630504
0.004869220778
-0.018787460402
0.026385450736
0.012651534751
0.022253274918
-0.010342657566
-0.003726443276
-0.026200927794
0.009522387758
-0.019940059632
-0.025819616392
-0.007981795818
0.010013552383
0.022366497666
-0.010585333221
0.016748417169
0.015675928444
0.016157001257
0.025380702689
0.030737185851
-0.011437783018
0.025219721720
-0.015793040395
0.002563905204
-0.012379920110
0.007911787368
-0.021502822638
-0.016077928245
0.027240455151
0.002433034591
-0.027483487502
-0.011825895868
-0.006160651799
-0.000927466492
0.025982197374
-0.004048571922
0.018992818892
0.023047931492
0.019908070564
-0.026376320049
-0.009453812614
-0.019545637071
0.019732242450
0.029839798808
-0.021579496562
0.018431875855
0.024610904977
0.011718057096
-0.023510577157
-0.010565835051
0.019901566207
-0.001064663869
-0.027003115043
0.012104649097
0.006803082302
0.015156263486
0.000567309966
-0.012532777153
-0.012287450954
0.007477716543
-0.005683807656
0.030148414895
0.001921655494
0.005260852166
-0.021656174213
-0.030719755217
-0.008681419306
-0.025095114484
-0.001954212552
-0.004588494543
-0.005373181310
-0.020251797512
0.019855685532
-0.027753252536
-0.026358399540
0.019733915105
-0.025484252721
-0.015621179715
-0.011931666173
0.025208720937
-0.026859397069
0.029411191121
0.015758229420
0.007774362806
0.006617727689
0.030098214746
0.021854370832
0.020479628816
0.023530736566
-0.009667970240
0.016784511507
-0.027380863205
-0.002939153928
-0.000124774582
0.014315731823
-0.028925143182
-0.010858196765
0.025570595637
0.030059190467
0.026328558102
0.010653623380
0.009493052028
0.026713667437
0.012458193116
0.003187336959
-0.021567136049
0.011637588963
0.018138883635
0.013829533942
-0.010976995341
0.024139886722
0.015110755339
-0.022981556132
-0.017931614071
-0.015549514443
-0.023160470650
-0.013254135847
0.012976833619
-0.011398787610
0.027645122260
-0.015742551535
0.023648032919
-0.027671590447
0.002220038092
-0.010013950057
-0.018842071295
0.002102674684
-0.024486476555
-0.012292265892
-0.008670805953
-0.030769016594
0.006437568925
-0.007440996822
0.018912516534
-0.001202818006
0.008989211172
0.023641524836
-0.025866836309
-0.021516179666
0.017749657854
-0.018015785143
0.028389459476
-0.023719450459
-0.009749985300
0.000168428669
0.008054084145
0.022428650409
-0.014253600501
0.021851727739
-0.007132473402
-0.024332623929
0.029295224696
-0.004222550429
0.019198622555
0.010386359878
-0.027971452102
-0.004330253229
0.023589298129
-0.007450795267
0.004672077484
-0.007761582732
-0.003897009417
0.014108986594
-0.021501027048
0.024071864784
-0.022725837305
-0.021870162338
-0.014828748070
0.008710022084
-0.028149088845
0.009874690324
0.010724750347
-0.000720824464
-0.028509076685
-0.030602928251
-0.010901544243
-0.025422899053
0.011955264024
-0.027059873566
0.003634424182
-0.025353871286
-0.024799624458
0.014073636383
0.001873026253
-0.013945763931
0.014064899646
-0.000536872598
-0.001176789403
-0.027132526040
0.008824399672
0.024462666363
0.018601341173
-0.024258572608
-0.030567366630
-0.003495691111
0.006996157579
-0.022086525336
0.003426185111
-0.010441282764
-0.017504712567
0.012323651463
0.001953449333
-0.010052645579
-0.009091319516
0.005931318738
-0.001398860826
-0.030938724056
-0.019255084917
-0.020445963368
-0.003320965450
0.011437960900
-0.001461037202
0.020648457110
-0.020933371037
-0.018601134419
0.010048021562
-0.013838724233
-0.020431831479
0.015303912573
0.007277125493
0.001054991153
0.028920486569
0.022829644382
-0.000038942828
0.006793501321
0.006624377798
-0.014141115360
0.025877296925
-0.007825417444
-0.026405064389
0.027740003541
0.015714863315
0.022116320208
-0.005006337538
-0.018906684592
0.027492292225
-0.000849777658
-0.019337795675
0.027836944908
0.022764556110
-0.027992703021
0.001560542034
0.017891373485
-0.013369170018
0.018148239702
-0.006606994662
0.020047076046
-0.016133008525
-0.006100579631
0.017358170822
-0.014804803766
-0.010428500362
0.016044506803
0.023938674480
0.009528053924
0.016570851207
0.015678953379
-0.010314467363
-0.004722250625
0.002111882437
0.028763007373
0.001305652200
0.013263275847
-0.017349291593
0.023899292573
0.003416639753
0.026785518974
-0.007902062498
0.019803345203
0.030357314274
0.019189095125
-0.006606025156
-0.018018785864
-0.019644863904
0.030568191782
-0.010372166522
-0.031154515222
0.010157001205
0.004894303624
-0.011560253799
0.003019096563
-0.030075872317
0.027821633965
0.005249970593
-0.016444984823
0.008836508729
0.018473183736
0.007053299807
-0.008266906254
0.000545081915
0.029302205890
-0.010762206279
0.015643876046
0.018281655386
-0.000614175398
-0.006288675126
-0.028499040753
0.000690831686
0.022735936567
0.015094699338
0.013045343570
-0.022878682241
-0.012614993379
-0.027287730947
0.024890793487
0.017466166988
-0.011682039127
0.006250523496
-0.003986351658
0.002975652227
0.007248407695
-0.028895955533
0.030995201319
-0.026287924498
0.023025069386
0.029911018908
-0.001115833293
0.029179917648
-0.003287065541
-0.019912978634
-0.029871834442
0.003406923031
0.009769321419
0.020472189412
0.031034804881
-0.008053464815
-0.029624199495
-0.014719023369
-0.002664270345
-0.009359750897
-0.022585062310
0.022380815819
-0.017143284902
0.019718727097
0.023927470669
-0.003034168156
-0.004186713602
-0.010172557086
0.013417220674
0.011511530727
-0.028175378218
-0.012759573758
0.012843057513
-0.018642365932
-0.021160831675
0.017975352705
0.030033007264
-0.014774428681
-0.021269917488
-0.008617835119
-0.007408701815
-0.013679281808
0.024809038267
-0.021633867174
0.002825368894
0.023351451382
0.010958314873
0.022599125281
-0.017571246251
-0.007203533780
-0.019527418539
0.004252549727
0.029218828306
0.008382785134
-0.030626552179
0.019313715398
0.002840647940
-0.002939719474
-0.017801934853
-0.007432834245
0.029292991385
-0.011225530878
-0.014602739364
-0.011279038154
0.011203606613
-0.028358757496
-0.021130779758
-0.013645970263
0.021673584357
0.029761595652
0.015027278103
0.026768002659
0.002672987292
0.010843454860
-0.030271740630
0.004558960441
0.000854013837
0.019219160080
-0.022003030404
-0.003603204619
-0.020540183410
-0.017083868384
0.017024004832
0.019936207682
0.027741067111
0.019136575982
-0.021723300219
-0.030064757913
0.027091631666
0.015902761370
-0.013373468071
0.008630371653
0.013181312010
0.009610543959
0.021436853334
-0.014220552519
-0.031112493947
-0.003933641128
0.022525880486
0.016383958980
0.006987495348
0.028778836131
0.002192136599
-0.002825386589
0.004705187865
0.008964210749
-0.020064964890
-0.023386280984
0.030733294785
0.004366961308
-0.026367671788
-0.027135368437
-0.024659272283
0.029589975253
-0.006665692665
-0.009113152511
-0.005549829453
0.012281499803
-0.022298473865
0.017309689894
-0.022697011009
-0.019744426012
-0.000920326333
0.016275873408
-0.005458260421
-0.010751533322
-0.004793735221
-0.028014138341
-0.001637177425
-0.011660843156
-0.007380255498
0.012681472115
-0.013485766947
-0.018021197990
-0.006636823528
-0.028331605718
-0.026570621878
0.029999032617
-0.024146560580
0.008193701506
-0.007842548192
-0.027520950884
0.022783668712
-0.011643226258
0.020602982491
-0.019798919559
-0.016188887879
-0.027885641903
0.013112602755
0.028726181015
0.006542210467
-0.030555399135
0.025076100603
0.024293769151
-0.027025071904
-0.024309534580
0.015044762753
-0.026774616912
-0.011298894882
-0.022747799754
0.018596541137
-0.020953247324
0.015296082944
-0.012210840359
0.017361849546
-0.000690793677
-0.001392434468
0.028409130871
-0.016378475353
0.029485974461
-0.010741622187
0.023770773783
-0.012740210630
0.016384473071
0.017845524475
-0.010636728257
0.002220731461
0.015283162706
0.011618179269
-0.011803556234
0.023832112551
-0.022496538237
-0.025100961328
0.030995538458
-0.016607444733
-0.014114999212
-0.006980406586
0.021276183426
0.010102726519
0.019948991016
0.013961052522
0.030506774783
0.016981104389
-0.012974113226
0.011211605743
0.004482083488
0.001002918114
-0.030830388889
0.025423610583
-0.001911846339
-0.024516360834
0.001794343814
0.001492365496
-0.018228709698
0.014059854671
-0.018647726625
0.024873282760
0.028337901458
-0.006348087452
-0.004058073275
-0.001038640505
0.005083061289
0.023996520787
-0.021383719519
-0.018418641761
0.010988027789
0.010970382951
-0.025555413216
0.003944212571
-0.018145440146
0.016283296049
-0.019259469584
0.019359365106
0.016187526286
-0.002562389476
-0.017742879689
0.027542399243
0.025074578822
0.010295874439
-0.000535648316
-0.028801025823
0.025417070836
-0.002482561860
0.028025841340
0.013890974224
-0.021246463060
-0.025181977078
-0.014845330268
0.026288608089
-0.003094522282
0.015226388350
0.003377127694
-0.003729075193
-0.028463592753
0.029599567875
0.028808292001
-0.029121877626
-0.018087834120
0.019367024302
-0.020425178111
0.014604833908
0.031116668135
-0.026968916878
0.009923974983
0.006009671837
0.024340566248
0.028811777011
-0.015010815114
-0.014112208970
-0.021909819916
0.001154111931
-0.019751824439
0.029685603455
0.026292059571
-0.022394133732
0.015332887881
-0.030776025727
-0.020609192550
0.003344984492
0.002474106383
0.010395432822
0.025118546560
0.016928276047
0.015074550174
-0.002839518944
-0.020506208763
-0.021381262690
-0.018821578473
-0.004808033351
-0.029061485082
-0.004986044485
-0.006717490032
0.020135428756
-0.027287535369
-0.005487634800
0.013622296974
-0.024285750464
-0.026244521141
-0.014122909866
-0.013201955706
-0.012138363905
0.029913816601
-0.030734736472
0.030168510973
0.006525510922
-0.011585076340
0.009480019100
-0.009534581564
-0.029477104545
-0.012626470998
0.026166500524
0.025579545647
-0.015913475305
0.011836036108
0.016846505925
-0.002136282623
-0.030845686793
0.031084176153
0.013281741180
0.028281699866
0.024612246081
0.019046084955
0.020376715809
0.026189394295
-0.020125092939
-0.007160505746
0.030141988769
-0.006518539041
-0.028500143439
0.030101701617
-0.006076179445
-0.017508033663
0.018335981295
-0.015334228985
-0.012575570494
0.011020644568
0.025707250461
-0.027268500999
0.013601196930
0.027156716213
