-0.017431763932
0.007184949238
-0.010584555566
-0.013774041086
-0.009643334895
0.006531325169
-0.012329786085
-0.013995449059
0.001236418728
-0.014885017648
0.007274343167
-0.006844365038
0.018196120858
0.009075361304
0.019123474136
-0.011003125459
-0.017598832026
0.005782789551
0.009916341864
0.011282006279
-0.014073447324
-0.007304296829
0.012785678729
-0.003762807697
0.003043493023
0.010291929357
-0.004995044321
-0.019308503717
0.012268085033
-0.013659834862
-0.014041584916
0.016814123839
-0.018109284341
0.003720213193
0.018087482080
-0.002266627038
0.020618233830
0.014466272667
0.005924115889
-0.018845286220
0.020026760176
0.000234349252
-0.009807011113
-0.000853457605
-0.006092371419
-0.019488083199
-0.016113359481
-0.016796199605
-0.018123343587
-0.003164463909
-0.017297435552
-0.018157549202
0.002766276710
0.009961310774
-0.017202604562
-0.008761023171
0.009422034957
0.003867156105
0.009762942791
0.014624869451
0.007500010543
0.019436385483
0.015148214065
-0.013445371762
0.018756488338
0.005291152280
-0.000594310870
0.009010773152
0.017050459981
0.011438527144
-0.002182534663
0.001799767837
-0.010649310425
-0.005142394919
0.013244977221
-0.013866933994
0.005626945756
-0.014972054400
0.018262626603
0.009918680415
0.018299527466
0.008312867023
-0.005444663577
0.009079188108
0.003018725896
-0.008247869089
0.020149623975
0.003694391344
-0.007474004291
-0.007203805260
-0.008184422739
-0.011881069280
-0.000884948240
0.000241011585
-0.013454573229
-0.009397844784
0.014581833966
-0.020594902337
0.019524646923
-0.003944687080
0.011429437436
-0.013717281632
-0.008157502860
0.013087680563
-0.015876542777
0.018418308347
0.016175361350
0.018589997664
0.019972024485
0.019641479477
0.004989804234
-0.004482898396
-0.001673552440
0.010506086051
-0.001672263141
0.013456181623
0.006889666431
0.006426438689
0.002032498131
0.007445478346
0.008570972830
-0.014050504193
0.004290072713
0.017868032679
0.017885435373
0.006215456873
-0.003188730683
-0.014837657101
-0.001627576770
0.019828870893
-0.010579668917
0.007627682295
-0.000865293492
-0.014437406324
0.003911361564
0.010520927608
0.008429954760
-0.006042802241
-0.013451237231
0.001435155165
0.003980904818
0.020622763783
-0.018153639510
-0.018176114187
-0.002669847338
-0.007622156758
0.004246468190
0.014858958311
-0.011130017228
-0.019236417487
-0.017878871411
0.019173299894
0.004568192642
-0.001514286501
0.006430275273
-0.003823491279
-0.003151780227
0.005025905557
0.001510017551
-0.000948755362
0.015335968696
-0.007926058024
0.014875914901
-0.011673334986
-0.017517255619
-0.011175531894
-0.018922284245
0.006416455377
0.013039177284
0.005456970539
0.005141697824
-0.000680915604
-0.016096839681
0.008383493870
-0.016481634229
0.017337756231
-0.016025019810
-0.017062246799
-0.019188797101
0.017124734819
-0.003777564038
0.001289204578
-0.015190245584
-0.007101125084
-0.009201774374
-0.006253378931
0.011084222235
0.012227819301
0.006607717369
-0.020039267838
-0.003108786186
0.016849514097
-0.018339609727
-0.008849623613
-0.017259251326
0.005064596888
0.009973171167
-0.015182640404
0.013676142320
0.004478525836
0.016775952652
-0.018855415285
-0.018268123269
0.011002539657
0.013565976173
-0.010372455232
-0.007060514297
0.003634051885
0.010330620222
0.009570463561
0.006426401436
-0.002117625438
0.007439774927
-0.006643019617
-0.018466217443
0.020853824914
-0.009860939346
-0.012227357365
-0.018849227577
-0.013957886957
-0.017357086763
-0.007288311608
-0.013108124956
-0.001849171356
-0.013628076762
0.010811167769
0.017375545576
-0.008729520254
-0.001665729098
-0.018107462674
0.020799949765
-0.008247605525
-0.002065667184
0.014222920872
0.000112551832
-0.006325924769
-0.014198297635
-0.009239435196
0.012037911452
0.004702309612
-0.012076636776
0.003477275372
-0.013161760755
-0.005392974243
-0.000785917975
0.011631099507
-0.018457211554
-0.009050180204
-0.020239092410
0.010248616338
-0.000046041008
0.009422843345
-0.006478721742
0.014042552561
-0.014046966098
-0.015690976754
