0.005766659509
-0.004458316136
-0.013248415664
0.005886857864
0.014796917327
0.003984049428
-0.006399269216
0.000207405159
0.008206891827
-0.013708784245
-0.005059147719
0.001470378018
0.003257816192
-0.000800486712
0.011471030302
-0.012154211290
0.011189540848
-0.012549555860
0.002235331107
0.001055177534
-0.000159583840
-0.002363393083
0.006018454209
-0.010936397128
-0.007812368218
0.006501165684
0.010205335915
-0.005086016841
0.003478068160
-0.002120123943
0.004941703752
-0.004342923407
0.010310363024
-0.008175591938
0.000959950732
0.001994502265
0.010009001009
-0.003335234709
0.003487019101
0.000645818072
-0.011667821556
-0.001747076982
-0.008325260133
0.008177379146
-0.004253726918
-0.002243662486
0.014183827676
0.004876233172
0.005457078572
0.009479677305
0.000633453019
0.004729044624
-0.004354381934
-0.004201834090
0.011288397945
0.012842592783
0.004808729514
0.012904208153
0.008617342450
-0.002181781689
0.006049780641
-0.004192115273
0.014176922850
-0.003345958190
-0.013092441484
0.013000680134
-0.011437776498
0.010762135498
-0.010399464518
-0.012781329453
0.001797748264
0.003189532086
0.006548251957
0.004681649152
0.000585055444
-0.001044400386
-0.013618951663
0.007224645931
0.006168284919
-0.004575676285
-0.014186336659
-0.000985306338
-0.003202832537
-0.014208968729
-0.001548579428
0.014561419375
-0.005581189413
0.003107047873
-0.001486085239
-0.006031917408
-0.011054560542
0.000761525589
-0.013999921270
-0.012032029219
-0.014334292151
0.008566839620
0.001129724435
-0.008178882301
-0.011207921430
0.012206196785
0.002543923212
-0.007725117262
0.008670154959
0.005479190033
0.001043507014
0.006332302932
-0.008959747851
0.002597427461
0.005334742367
-0.005728188902
-0.008532581851
0.012508906424
0.000751808228
-0.007223140914
0.002183742588
0.009210597724
-0.010938184336
0.013284035027
-0.002440520329
-0.008593061008
-0.011994279921
-0.000269065989
0.003774797544
-0.011323577724
0.014228498563
0.013893507421
-0.002620413201
0.004395936616
-0.013880903833
0.004793766886
-0.004196171183
-0.004116206896
0.007471268531
0.009559247643
-0.012654612772
0.002901531290
-0.011645982042
-0.011386633851
0.001760437153
0.007636673748
0.004317308310
0.001861293917
0.000054387740
0.008513016626
-0.006374625489
0.002628200687
0.004644779488
0.008259939030
-0.011006184854
-0.004943668842
-0.000357695506
0.013482925482
0.009318020195
0.012529702857
-0.007942703553
-0.006074477453
0.005348350853
-0.001206062036
0.014189521782
-0.012711976655
-0.001958287321
-0.012549160048
0.011878847145
-0.010322216898
-0.012540577911
-0.010449103080
-0.013288878836
-0.000740641553
0.011891827919
-0.008166380227
-0.000033661774
-0.009640658274
0.007091992069
0.010715590790
-0.010449435562
-0.001122059184
-0.013472280465
0.006036733277
0.007176911924
0.001454136451
-0.001619604416
-0.005440879613
-0.002223309595
0.013080890290
-0.010759383440
-0.011515161023
-0.014502189122
0.009050078690
-0.000561694731
-0.008598975837
-0.006325977389
0.007717892062
0.000307468988
-0.010501675308
-0.012787228450
-0.002894889796
-0.001941982773
-0.004921536893
0.003018078394
0.007711826358
0.002697047777
-0.001526225591
0.007076304872
0.008147462271
0.010840150528
-0.013798881322
0.012261354364
0.000191858344
-0.008731140755
0.008355082944
0.002003438771
0.009996701963
-0.004589239601
-0.004892751109
0.008157485165
0.004918307997
-0.001872136956
0.003507970367
0.004996126518
-0.008251542225
0.003342190757
-0.001891988446
0.001028308296
0.014651189558
-0.010793086141
-0.010045679286
0.003013773123
0.008504723199
0.006493354682
-0.013805259950
-0.011390850879
0.011275539175
-0.002297998406
0.006852738094
0.005514962599
0.002653018571
0.003154758597
0.001799971913
-0.009317464195
0.011117748916
0.008304170333
0.010164959356
-0.004367383197
-0.001687674667
-0.011764091440
-0.012739875354
-0.006001934409
0.009256700054
0.014534060843
0.001030739862
0.011320719495
0.004462652374
-0.014542317018
0.003964461852
-0.005049472209
-0.012176773511
-0.008583710529
0.009387183003
0.006553961895
-0.009949681349
-0.004510779865
-0.003923865966
-0.005704084877
0.000221993760
0.000998130301
-0.001677014516
-0.010680633597
-0.001929328893
0.003559087869
-0.002539309440
-0.008183578029
-0.003303151345
-0.012411489151
-0.006825538818
0.008151956834
0.004509738181
-0.004349125084
0.009888041764
0.006050546654
0.001488001086
-0.008047057316
-0.001150313998
0.012560123578
0.014580246992
-0.006237098016
0.007787432522
0.013512252830
-0.014147059992
0.012017231435
0.001936414163
-0.003322652774
0.014165543020
0.013327212073
0.007137175184
-0.009136182256
-0.009939707816
-0.008225827478
0.004625306465
-0.011857313104
-0.007228610571
-0.004309311509
0.000221967784
-0.008226466365
-0.014212763868
0.002934766468
0.000163633464
0.008435556665
-0.006982528605
0.012185415253
0.002945548389
0.009662167169
-0.011683595367
0.007722236216
0.001758892788
-0.009981145151
-0.007851752453
-0.009505062364
-0.000715915114
0.001238695462
-0.011505658738
0.001610457897
-0.012301401235
0.008876006119
0.008364723995
-0.002739086514
-0.012782123871
0.001416591811
0.009829614311
-0.010398667306
0.002483383054
-0.011605693959
0.007820792496
-0.005704663694
0.003124556504
0.003503913525
-0.004974613898
-0.012704441324
0.005174913444
0.009457565844
-0.007994581014
0.014451762661
0.012572720647
0.013905266300
-0.006684392691
0.012281547301
-0.014647779986
0.008982396685
0.004279628862
-0.010623252951
0.010043648072
0.010916063562
0.009130046703
-0.002204912482
-0.010437945835
0.013702538796
-0.014354996383
0.010139389895
0.009107695892
0.001054187887
0.005480968859
-0.002002232475
-0.008293380029
-0.004660215229
-0.005348507781
0.005566256121
0.014679535292
-0.001900806441
-0.001806886168
0.014551904984
0.005152317230
0.013120284304
0.000080311176
-0.010281698778
0.010199035518
0.002312144730
-0.004453822505
0.000973219459
-0.012744018808
0.000328030030
0.009474762715
0.007892511785
-0.003864871338
-0.004948175047
-0.001569374464
0.003831309266
-0.005072891247
-0.003544683568
-0.001228773035
0.006426307373
-0.003238081699
0.014356578700
-0.000751998799
-0.009493254125
-0.009036011063
-0.010993549600
0.004194229376
0.004433228634
0.014410225675
-0.013994007371
0.001035274006
0.002108830493
-0.009044221602
0.007249460090
-0.008299206384
-0.008382507600
0.003825525753
-0.009238508530
0.007001130842
0.008794434369
0.009991922416
0.011654574424
0.007476788480
-0.009930783883
0.003282548394
-0.008274856955
-0.006802477874
-0.008598922752
-0.003144089365
-0.005799447652
0.009177181870
-0.005024989601
-0.014354135841
0.000944638508
-0.001919198316
-0.011016509496
-0.010357237421
0.003133234568
0.008495683782
-0.010238603689
0.012900715694
-0.005012855399
0.005777608603
-0.006256679073
0.014509232715
0.009939071722
-0.005865394603
-0.014248687774
-0.010512371548
0.011396806687
0.001240695128
0.003442269517
-0.000196478344
-0.004688304383
-0.012186820619
-0.008982114494
-0.002449306427
-0.012110140175
-0.012948496267
-0.001526464825
0.000171945590
0.006734354887
0.012769382447
-0.010565889068
-0.001269328292
0.009313890710
-0.002071119146
0.005484359805
0.008536946028
-0.012913285755
0.013529801741
0.013582347892
0.009126422927
0.007677030750
0.013873950578
0.001333652996
-0.006681422237
-0.001008474850
0.008446564898
-0.013674763963
0.010809782892
-0.002094904194
-0.010127970949
0.001014821115
-0.002061494393
0.001550895860
0.004461163655
-0.011257817037
-0.005623238161
0.003480500774
-0.009427996352
0.003871437395
0.003983868286
0.006529854611
-0.001789123286
0.003112109611
-0.001179819927
-0.000201629504
0.013862079941
0.003443541005
-0.004788380116
0.002731007757
-0.000851277669
0.014538740739
-0.010060179979
0.012479388155
-0.014398405328
-0.009670033120
0.013895589858
-0.007387904916
0.013274510391
0.011548341252
-0.004539055750
-0.000022794458
-0.000494652020
-0.006532467436
-0.007201975677
-0.014023607597
-0.006262095645
0.005554623436
0.002722780686
0.005755929276
-0.005679087713
