-0.019240219146
-0.025965478271
-0.027091182768
-0.017167204991
0.022946190089
0.003338444978
-0.016668079421
0.023513112217
0.003244815161
-0.025269681588
0.029029998928
-0.029303904623
-0.020020402968
0.024495510384
-0.011903018691
0.000971116940
-0.017236707732
-0.005008530337
-0.022887282073
-0.002138649113
-0.007934160531
0.006907173898
-0.012579228729
-0.003575542476
-0.012503674254
0.001358442241
-0.020994190127
-0.010782621801
0.021112028509
0.014423059300
0.009037217125
-0.024276895449
0.010320716538
-0.013727270067
-0.008032845333
-0.030230350792
0.027196288109
-0.016516407952
-0.018767297268
0.018934518099
0.018547026441
0.001539404737
-0.019383879378
-0.026242354885
-0.014880491421
0.012191854417
0.010701389983
0.022884013131
0.013503924012
0.020778376609
-0.027007861063
0.003802203340
-0.025668933988
-0.007485204842
-0.009106645361
-0.026863439009
0.001977738459
0.002054707147
-0.012586734258
-0.013370943256
-0.009211586788
0.019564012066
-0.014249701053
-0.007521046326
0.028056208044
-0.000257072126
-0.017443982884
0.019243009388
0.001948466524
0.005904681515
-0.004851316102
0.023897802457
0.013606394641
0.015024239197
-0.017771057785
-0.017685612664
0.003588316729
0.005336034577
-0.020641935989
0.016044616699
-0.025017499924
-0.001151705161
-0.002342836466
0.011507403105
-0.020414471626
-0.001186329755
-0.014035281725
0.026123270392
-0.026008566841
-0.015829062089
-0.026363857090
0.019037531689
-0.021176291630
0.021004712209
0.021304888651
0.013036767021
-0.007479857188
0.007253712974
-0.005418667570
0.012552189641
0.016111820936
-0.000296692218
0.013346135616
0.027289995924
-0.003691310529
0.009372958913
-0.028705790639
0.025471493602
0.015843139961
-0.029222520068
-0.007984950207
0.007760053501
-0.013759694993
0.006170764565
-0.006532149389
0.011092235334
-0.017243659124
0.029233545065
0.006393042393
-0.027691744268
-0.000288542040
0.027350066230
0.027559587732
0.012023678981
-0.000920689548
0.004863855895
-0.006482455414
0.009831316769
