-0.007950687781
-0.016060974449
-0.012912179343
0.013239518739
-0.013040564023
-0.007187048905
-0.009005249478
0.017297612503
-0.010526819155
-0.018841864541
-0.014574348927
-0.009589887224
0.014304357581
0.018634147942
-0.000413785398
0.005816906691
-0.004615352023
-0.019636971876
-0.004953823518
-0.000542687718
-0.011561756022
-0.015624735504
-0.011237717234
0.004470627289
0.006037514191
0.003722987836
-0.003923594020
0.001117175212
0.006165959872
0.004331251606
0.000684430939
-0.000871853961
0.019894527271
0.004228555597
-0.014269242063
-0.013631127775
-0.011289803311
0.015337232500
-0.015954418108
0.004078040365
-0.014653170481
0.011476119049
0.010408874601
0.010329104960
-0.002912720898
-0.009970119223
0.014498583972
0.006077934522
0.008254794404
-0.016748128459
0.004699386191
0.019394211471
0.008073618636
0.010582188144
-0.018787041306
-0.007589631714
-0.011520266533
0.000004609914
-0.015376724303
0.010115399957
-0.019279565662
0.002422914375
0.014741470106
-0.010091321543
0.004452794325
0.015521121211
-0.002640743740
0.017154665664
0.020468508825
-0.015240145847
0.012502293102
0.014227660373
0.009220829234
-0.003451798577
0.001620953088
-0.011699737050
-0.018624439836
-0.019555382431
-0.019539043307
-0.014649018645
0.001773740049
-0.014488887042
0.003060223535
0.013310391456
0.003333348548
0.019376719370
0.020588679239
-0.000575086800
-0.009872849099
-0.017387894914
-0.012830522843
0.010128472000
0.000209731166
-0.017559176311
0.002403439954
-0.013406695798
0.017868606374
0.017986914143
0.016457756981
-0.019395262003
0.011553709395
0.014718521386
-0.005611618515
-0.004647745285
-0.009925616905
0.009144366719
-0.019081138074
0.009380550124
0.004093851894
-0.009600855410
0.003511972493
0.006089759525
0.016000807285
0.000729858293
-0.019896633923
0.010720975697
0.012272763066
-0.018126852810
-0.016498146579
0.013307607733
-0.006421448197
0.001435086597
-0.007537078112
0.002437697491
-0.002161809243
0.009630546905
-0.014574154280
-0.020564887673
-0.000488012302
0.005483652465
-0.003098719753
0.002519586124
0.003827144625
0.011252919212
-0.010543450713
-0.020566491410
-0.018106091768
0.000843123998
-0.016378138214
-0.019865000620
0.005696637090
-0.002290091710
0.019958348945
-0.005138789769
0.017901992425
-0.013451602310
0.003984608687
0.005798900034
0.010208501481
-0.001097645028
0.019342606887
0.016986286268
0.002093719319
-0.012173591182
0.006041459274
0.015130748041
-0.017745062709
-0.007328764070
-0.005350509658
0.019117409363
-0.003267636290
0.018495738506
0.002425486455
0.018386336043
0.003524588421
-0.008898279630
-0.000887442962
-0.005881367717
-0.015295986086
0.007310900837
0.017183560878
0.019451398402
-0.018893830478
-0.019259445369
0.000836725405
-0.014294309542
-0.003131984733
-0.002768532140
-0.012172394432
-0.007340118755
-0.010436011478
0.007370312233
0.003073950764
0.010840620846
-0.019962893799
0.008963641711
-0.018927248195
0.002150523011
-0.014206041582
0.015108674765
0.010868404992
-0.020536510274
-0.015418422408
-0.004678798374
0.000901532359
0.011848394759
0.019257634878
-0.003676539287
-0.011481764726
-0.001123422524
0.002286374336
-0.008164897561
0.012595347129
0.007227682974
-0.016938935965
0.015585893765
-0.008460120298
-0.011784735136
-0.006054239348
-0.011641819030
-0.007203281391
-0.002038399456
-0.002633661730
-0.017467752099
0.019413333386
0.000325964560
0.009125843644
0.002699144185
0.020190306008
-0.011896131560
-0.020455680788
-0.001513341093
0.011570254341
-0.003904730314
-0.018538197502
-0.015102525242
-0.002249493729
-0.005416496657
-0.000194485197
-0.004397005308
-0.012907673605
0.014867257327
-0.001682043076
0.017931532115
-0.016115147620
-0.000798771624
-0.001721245353
0.002841835609
-0.003486642847
0.007090913132
0.014610919170
0.016612987965
-0.013606172986
0.013354837894
0.012201411650
0.013725229539
-0.007251646370
-0.001999043161
0.007955994457
0.009959975258
0.015618136153
-0.009330797940
0.002384327818
-0.010481141508
0.000790017075
0.013533288613
-0.010347350501
0.006767689716
-0.015193395317
-0.004009563010
0.002859095577
-0.000893967284
0.009341849945
-0.017446070910
-0.005715478212
-0.002670230344
0.005690162070
0.016464440152
0.005033018067
-0.014994681813
0.006527025253
0.009260892868
-0.000526608201
-0.004922642838
-0.000483761600
0.000891920179
-0.018966984004
0.017874231562
0.019084151834
-0.010332501493
0.016238646582
-0.013093627058
0.000614939025
0.006080885883
0.013535696082
-0.010843056254
0.016491638497
0.007981106639
-0.011806217022
0.005084806588
0.005754220765
-0.019739817828
-0.006901000161
-0.002455350477
-0.003139457433
0.005480872467
0.015879098326
0.008853835985
-0.001296676113
0.004438058008
0.001492143841
0.002160329139
-0.010899472982
0.016586340964
-0.004357657395
-0.007955840789
-0.005664982833
0.018847523257
-0.008747714572
-0.010204833001
0.001875307993
-0.008264769800
0.002110616304
-0.020099390298
0.020547060296
0.012034455314
0.016328137368
0.012688499875
0.013692870736
0.019368009642
0.012071107514
-0.008837259375
0.004225407727
-0.009929973632
-0.016683904454
-0.015764977783
0.004435612354
0.008536126465
-0.019180469215
-0.014013736509
-0.008311830461
-0.001492815209
0.015338178724
0.014833718538
-0.012743846513
0.006356371567
-0.007416093722
0.007281640545
0.002344064182
0.001517683268
0.014547068626
-0.005429833662
0.012582024559
-0.005978537723
-0.002605659654
0.007963995449
-0.008390775882
0.016785115004
0.000205670411
0.011282747611
-0.005551466718
-0.011459625326
-0.018150076270
0.012312873267
-0.004662396386
0.015542489477
-0.016995208338
-0.002307744930
-0.001751739066
-0.019828252494
-0.014728915878
0.004676261451
0.006823799573
0.010536397807
-0.000192682404
0.018163418397
0.019212473184
0.010429046117
0.002512773266
-0.006753692403
-0.005923407152
-0.011860545725
0.010562868789
0.006924277637
-0.011997880414
-0.002181990305
-0.009231565520
-0.001939094276
0.000155788308
0.005740498193
-0.020371880382
-0.008556564339
0.012154299766
-0.007575617172
0.014447190799
0.000407381071
0.011119737290
0.009894626215
-0.011972519569
0.004748705775
-0.014508553781
-0.010305231437
-0.012822686695
0.005483153276
-0.003174147103
-0.020264564082
-0.018212962896
-0.014511543326
0.014461068437
0.002291912679
-0.020546762273
-0.010015740059
0.019486691803
-0.001259038807
0.016866423190
-0.012668772601
-0.009525183588
0.003018049058
0.000717147428
0.001493388670
-0.018480421975
-0.018581792712
-0.005666763522
0.012460783124
0.013263776898
-0.000261653098
-0.014361150563
0.013600726612
0.015812320635
-0.001725044451
-0.000612717820
0.011540429667
0.011950083077
-0.017335280776
0.007089866791
-0.011798319407
-0.001898917486
0.010967621580
0.003908476792
0.001314366003
0.012917732820
-0.011886103079
-0.004253153689
-0.005723261274
0.009382760152
0.010727248155
0.010830962099
-0.017454564571
0.016108376905
-0.014226949774
-0.012959523126
-0.009458717890
0.007026781328
0.013333877549
-0.008830930106
0.002608746989
-0.012120834552
0.018603380769
0.014979072846
-0.002785920165
-0.013957795687
0.010416749865
-0.017994824797
-0.012538152747
0.011928938329
-0.012912732549
0.011558254249
-0.000283735309
-0.020148750395
0.015297214501
-0.019547073171
0.007222182117
0.005119196605
0.002881153021
0.002426885767
-0.010543231852
0.010245980695
0.000902638421
0.004159828182
0.010817363858
-0.003069116734
0.014666327275
-0.007541365456
0.015579978004
0.010952853598
0.002381489147
-0.017234671861
0.020370492712
-0.009209488519
-0.006149610970
0.014487111941
-0.008791997097
0.007702953182
-0.017880415544
0.016165969893
0.009918428026
0.008988643065
0.017561651766
0.003907751292
-0.011080142111
0.016093477607
-0.013228441589
-0.004429889377
-0.000503062387
-0.010618745349
-0.009166017175
0.009946360253
0.012782832608
0.006653740071
-0.015347016044
-0.013825452887
-0.008238354698
-0.002302242443
0.003609005595
-0.007380528376
-0.016839645803
0.019409816712
0.001208782545
-0.016146240756
-0.008784356527
-0.008954537101
0.014403738081
