1.0427682e-05
-1.2346811e-05
-7.1394948e-06
-7.922775e-06
-8.77318e-06
-6.3180064e-06
-4.162355e-06
-6.158555e-07
-1.1505368e-05
-2.3302237e-06
-3.9877004e-06
1.3984149e-05
-1.2945722e-05
1.0108251e-05
-6.391478e-06
-3.6585575e-06
-9.98178e-06
-2.2704162e-05
-1.7539804e-06
-2.6791831e-06
-3.4145328e-06
-3.555876e-06
-1.1084847e-05
-4.502469e-06
-8.820169e-06
-4.4293906e-06
-3.4993863e-07
-6.1198093e-06
-5.0578924e-06
-6.222933e-06
-2.1731887e-06
-1.4032929e-05
-9.330816e-06
1.5070129e-06
-6.2554554e-06
5.4316097e-06
-7.72804e-06
-5.105108e-06
1.6883756e-06
-1.2857555e-05
-7.896864e-06
-2.8034907e-05
-2.695601e-06
1.5879603e-05
-7.3199203e-06
-6.4025367e-06
-1.0174464e-05
-4.8495863e-06
-4.055298e-06
5.17797e-06
-1.996124e-06
6.316109e-07
6.8353334e-06
2.194399e-05
7.518278e-07
2.1607099e-07
-1.3216756e-05
5.918272e-06
5.106738e-06
3.6531233e-06
-2.7479089e-06
-8.019768e-06
-6.567685e-06
6.814858e-06
-3.0788146e-06
-1.1333414e-05
-1.9754787e-05
-1.0953221e-05
1.1666748e-06
-6.8098434e-06
-1.979294e-06
7.167515e-06
-8.163159e-06
-5.242645e-07
-5.0352855e-07
7.797554e-06
7.910019e-06
1.2949366e-06
9.805339e-07
-1.3372755e-06
-3.289162e-06
-1.5059723e-06
5.3347107e-06
-7.960051e-06
-6.2266777e-06
-1.1662743e-05
-1.4941096e-05
-7.626278e-06
-2.2144059e-06
-1.5089449e-06
-1.866757e-05
-1.089759e-05
2.2337754e-06
-1.3384649e-05
-3.3004292e-06
-5.5563855e-06
-1.0472362e-05
-7.5739867e-06
-2.874196e-05
4.5964707e-06
-1.3905384e-05
4.4096755e-06
-3.8520066e-05
-1.6114278e-05
-1.7296823e-05
1.28228785e-05
3.286803e-07
-1.3975046e-05
6.270532e-06
4.2406605e-06
-1.1017766e-05
3.6075153e-06
4.7690223e-06
-1.481457e-06
-1.5563244e-05
-2.4008645e-05
1.3592106e-05
7.2376347e-06
-1.0018911e-05
5.5559576e-06
-1.6293825e-05
-1.12641965e-05
-4.6339765e-06
-1.3346218e-05
-1.5673211e-05
-1.7926284e-05
-3.75576e-06
-1.5973306e-05
2.4588273e-05
-6.8944887e-06
-1.6149455e-05
-6.363348e-06
3.3160012e-07
-7.014842e-06
5.586646e-06
2.4172548e-06
1.0321084e-05
-1.0331836e-06
6.562249e-07
-7.4653226e-06
-6.4008564e-06
-1.4701163e-05
-2.0547794e-05
-4.69682e-06
6.9627554e-06
-7.3686233e-06
-1.26908835e-05
1.0731144e-05
-7.687743e-06
-1.1199148e-05
-1.4096918e-05
2.1319129e-05
-2.1423437e-05
5.361938e-06
-1.08912645e-05
7.667321e-06
-6.379043e-06
-4.032587e-06
1.732576e-06
-2.0499941e-05
2.7029823e-06
1.1764661e-07
-1.9826128e-05
-9.572449e-06
2.6740984e-06
-1.8878758e-05
5.117067e-06
-1.2030271e-05
-4.118669e-06
9.220256e-06
1.3817319e-06
-1.4041684e-05
-1.3971368e-05
5.4649666e-07
-2.2900249e-05
-8.248267e-06
-1.48917425e-05
-1.0071578e-05
-4.8633733e-06
-1.3411098e-05
-4.3967793e-06
4.543266e-06
-1.39966505e-05
1.472431e-05
2.5204652e-06
1.2965372e-06
-1.4169599e-05
-2.4896428e-07
-1.2089799e-06
-2.7240478e-06
4.6042783e-06
-1.2571657e-05
3.0287476e-06
-1.4146256e-05
-2.5757884e-06
-1.454748e-06
1.5876565e-06
-1.3332467e-05
-4.8414513e-06
1.611952e-05
3.1217435e-06
-5.553814e-06
-8.571586e-06
-1.1547222e-05
-1.3185734e-05
-1.0732552e-06
1.5744253e-06
-1.9417785e-05
-1.5741265e-05
-5.43566e-06
-1.9056704e-05
-1.5091414e-05
3.671119e-06
-7.78452e-06
-1.8088933e-05
-6.3514826e-06
-6.510657e-06
-9.74988e-06
-2.2339423e-06
4.3359687e-06
6.146813e-06
5.269209e-06
-9.905317e-06
-3.1944542e-06
6.7841834e-06
5.5833734e-06
6.770645e-07
-1.4706143e-05
-2.277852e-05
-9.340312e-06
3.8287085e-06
3.2331081e-06
-5.5595e-06
-2.0619873e-06
-3.8113624e-06
-2.7016097e-06
-1.5545683e-06
3.952352e-06
1.0106021e-06
-9.9060135e-06
4.2380675e-06
-1.3580396e-07
-1.1036916e-06
-7.715832e-06
-8.115532e-06
-1.5240607e-06
-1.0887806e-05
-1.1150148e-05
-7.437448e-06
-7.2072603e-06
-9.5088235e-06
-9.368763e-06
-1.5836995e-05
1.6306542e-07
-9.092181e-06
-1.3285629e-05
-2.4673234e-05
-1.286849e-05
4.338571e-06
-5.2149076e-06
-2.4718316e-05
2.7377677e-05
-1.0279924e-05
2.2836668e-06
-2.6711592e-05
8.547832e-07
-1.917727e-05
-1.803578e-05
-1.0012183e-06
8.2720226e-07
-1.1911231e-05
2.4164194e-06
-6.6846333e-06
-1.0615609e-05
3.1720658e-06
3.2584271e-06
3.836443e-06
-1.3239714e-06
-1.6014083e-05
7.939974e-06
-9.911497e-06
-2.9867908e-07
-5.2553587e-06
-1.818497e-05
1.0328431e-05
-4.726222e-06
4.70412e-06
-3.0097997e-06
1.1297994e-05
7.828479e-06
5.248984e-06
-1.9979902e-07
-1.0026487e-05
-1.2061135e-05
-6.588218e-06
1.7442927e-06
3.9834435e-06
-1.8899962e-05
3.8066462e-06
1.4627348e-05
-1.2596976e-05
2.0855512e-05
9.052102e-06
7.836531e-06
-6.846312e-06
-1.2801175e-06
-1.2552138e-05
7.0174606e-06
1.0809658e-05
-2.6931405e-06
-8.23959e-06
1.709721e-06
5.4382656e-07
1.1304285e-06
-4.8823513e-06
-1.3953386e-06
-8.56941e-06
7.72176e-06
1.5522494e-06
-8.446128e-06
-1.2150512e-07
4.9398236e-06
-3.393581e-07
2.2368374e-06
1.3154608e-05
8.031096e-07
-8.055437e-06
-3.9143268e-07
2.108605e-06
-4.042443e-06
-4.5147467e-06
-7.3296303e-07
8.580163e-07
-8.095325e-06
-3.522363e-06
-3.5545243e-06
-8.759164e-06
-2.2087737e-05
8.522889e-07
1.8385568e-06
-1.2066065e-06
1.454188e-05
-5.868033e-06
-6.4791175e-06
8.613067e-06
-2.2707729e-05
-1.1070406e-05
-3.6351123e-06
2.7117989e-05
4.3524083e-06
-3.3956228e-06
-7.307074e-06
-9.551033e-06
-2.5835996e-05
7.605851e-07
-4.3315163e-06
-4.732956e-06
3.8200974e-06
-2.807027e-06
-2.5627369e-06
-1.4896574e-05
-2.6228067e-06
-7.3784704e-06
-4.0526565e-06
-1.1217814e-05
1.9149152e-06
6.500938e-06
-3.8674625e-06
-1.9147842e-06
-2.7382896e-06
-9.372202e-06
1.3431376e-05
-1.1048889e-05
8.216668e-07
-5.2354073e-07
-1.3921391e-05
-4.820388e-06
-1.0501482e-06
-3.5733588e-06
-2.6158144e-05
-1.2163331e-05
-4.72558e-07
-5.1672896e-06
-1.4760303e-05
4.518854e-07
2.4088172e-06
-6.860812e-06
-1.10713445e-05
4.3756e-06
-2.9080854e-06
-8.725037e-07
-1.295639e-05
2.8455358e-06
-4.4620892e-06
-1.29780865e-05
-8.387336e-06
-7.1239338e-06
2.8521297e-06
4.211866e-06
-1.870636e-05
9.483487e-06
-5.2499704e-06
-3.0654185e-06
-7.290445e-06
5.939504e-07
1.1424007e-07
-4.032921e-06
6.7361907e-06
2.3563687e-06
1.2959558e-05
7.4468807e-07
-2.4316018e-06
-1.1192809e-05
4.7038457e-06
-7.035431e-06
-5.391942e-06
3.4835698e-06
-8.632029e-06
-1.9265563e-06
-6.505524e-06
-2.9309445e-05
-2.3840144e-06
-1.1188761e-05
7.490071e-06
1.2590561e-06
-1.9964664e-05
-4.1463977e-06
-5.1006564e-06
-1.4377014e-05
6.282573e-06
-1.9846557e-05
-5.764917e-06
1.49431635e-05
-6.352516e-06
-4.6994683e-06
-5.6454405e-06
-6.5565287e-06
-6.260542e-06
-3.1039624e-06
1.0519827e-05
-1.5198721e-05
-8.816281e-06
-1.997249e-05
-2.8539741e-06
7.6080124e-07
-1.2789306e-05
-8.7272065e-06
-4.8250863e-06
-6.7121704e-07
-9.238805e-06
-1.845766e-05
-1.3981917e-05
3.0468373e-06
1.1272778e-05
-5.5975033e-06
-1.6756974e-05
-2.197867e-06
-6.360198e-06
-8.240626e-06
-3.0925762e-06
-1.9980816e-06
-2.5590132e-06
-1.7516573e-05
-5.833477e-07
-1.0955152e-05
-1.3673127e-05
8.972621e-07
2.2709635e-06
-7.751895e-06
2.2786236e-07
-4.725697e-06
-2.5298139e-06
-1.7297868e-06
-2.4240946e-05
-1.7260874e-06
-2.365949e-05
-5.5763894e-06
-3.5930298e-06
8.820936e-06
-3.2018309e-06
7.7083605e-06
-7.3271735e-06
-6.37836e-06
5.188075e-07
9.9760955e-06
-5.875331e-07
-6.089126e-06
-1.6742697e-06
-1.0901107e-05
-4.956202e-06
-5.5891355e-06
4.899606e-06
-2.0362217e-05
-9.85571e-06
-6.3110856e-06
6.356763e-06
4.216439e-06
1.1901022e-05
-6.18316e-06
-1.4928687e-05
8.7308456e-07
-3.3413698e-06
-1.9435978e-05
-7.0646493e-06
-2.0938809e-05
-4.394773e-06
-9.214331e-06
-6.842234e-06
-2.0294377e-05
8.096499e-06
-4.2527154e-06
-3.4989492e-07
-6.3864068e-06
-1.0830197e-05
-3.1867098e-06
1.0154797e-05
-1.7607388e-05
-3.2986432e-06
1.0441387e-05
-2.7483127e-06
-9.388397e-06
2.8068923e-06
5.666616e-06
7.76786e-07
1.1471233e-06
-1.4680174e-06
6.507363e-07
1.3369866e-05
6.0921034e-06
-1.3791446e-05
-1.0241866e-06
3.828226e-06
2.4577798e-06
-2.5898598e-06
-5.0140756e-07
-1.4177588e-05
-2.3975624e-06
4.0296436e-06
-8.762436e-06
-1.3491964e-05
-7.873329e-06
-9.025123e-06
-4.164197e-06
-1.1505989e-05
5.800003e-06
-1.1186798e-05
2.0891575e-06
7.8353867e-07
6.414369e-07
2.7337906e-06
-8.772095e-06
-4.9076884e-06
8.559877e-06
2.878147e-06
-1.1384551e-05
3.3706658e-06
4.4857275e-06
1.664197e-07
-1.585466e-05
-8.588666e-06
-6.981833e-06
-2.1542573e-05
2.8678191e-06
-6.261289e-08
-3.309449e-06
-3.3022297e-06
-1.9892452e-05
-1.331158e-05
-1.433735e-05
-5.9552367e-06
-9.440888e-06
-2.1528217e-06
-7.2496055e-06
8.795595e-07
-7.953576e-06
-1.2628602e-05
-1.3051866e-05
-3.1787827e-06
9.500077e-06
-6.029769e-06
1.33655385e-05
-7.66474e-06
-8.85885e-07
1.632345e-06
-2.9985783e-06
-7.090535e-06
-1.3324689e-06
1.1666128e-06
6.674518e-07
-2.7230324e-05
-9.969303e-06
4.3221175e-06
-5.9504823e-06
-3.2480536e-06
-4.7630806e-06
-3.0326958e-06
-1.4730025e-06
9.616624e-06
-3.2063715e-06
-8.32823e-06
-2.23478e-06
7.5010225e-06
2.3137359e-06
7.57347e-06
-1.2257745e-05
-1.3222909e-05
5.91929e-06
-1.5083243e-05
-1.1394444e-05
-5.4552092e-06
4.924808e-06
1.860289e-07
-5.388854e-06
-8.453823e-06
-2.5921643e-06
9.001493e-07
3.8437483e-06
-5.5352307e-06
5.00943e-06
-1.7061648e-05
-1.1262661e-05
6.8707423e-06
-1.0544154e-05
-1.3437756e-06
-8.8294055e-06
6.285719e-06
-1.4168902e-05
5.7510647e-06
4.395175e-06
6.051586e-06
-3.9463725e-06
-1.7896105e-05
1.4932014e-05
-1.1210343e-05
2.9776743e-06
5.27406e-06
-2.670751e-05
6.952246e-06
5.5717046e-06
-9.518331e-06
1.389132e-06
-9.663972e-07
-2.0212132e-05
-6.30583e-06
1.957964e-05
-5.630002e-06
-9.149651e-06
9.448065e-06
1.1140226e-05
8.154403e-06
-3.4516127e-06
-1.5996625e-06
-7.731418e-06
1.7975592e-05
-1.0744183e-05
-3.9018687e-06
-6.654357e-06
-8.416137e-06
-1.731976e-06
6.965744e-06
-1.6325266e-05
-3.9007892e-07
-6.88254e-06
-2.6971638e-06
-9.253144e-06
-8.784701e-06
1.0483872e-05
-3.5704259e-06
-2.5813606e-06
-9.850509e-06
-3.398922e-06
-3.1919853e-06
2.7146816e-06
-3.0553308e-06
-6.915401e-06
-4.8916677e-06
-1.4162588e-05
-7.4653635e-06
-6.1087376e-06
-2.5962021e-05
-8.4269905e-06
-2.008512e-05
3.248955e-06
-2.3616105e-06
-2.5898707e-05
1.4679084e-05
-6.903914e-06
-8.47755e-06
2.064331e-06
-1.0058069e-05
-1.2634171e-05
-5.711203e-06
-1.8545326e-05
4.5431457e-06
-1.1337902e-05
-1.2215295e-05
-4.801755e-06
-9.937303e-06
-6.824203e-07
-1.1116367e-05
-5.695634e-06
-1.2629751e-05
-4.2536985e-06
2.1480623e-06
3.79642e-06
-7.894651e-06
2.3382158e-06
-6.224931e-06
-1.8886942e-05
4.842803e-06
-2.748624e-06
1.5740836e-06
-5.424064e-07
-5.768322e-06
-2.5920913e-06
-1.287569e-07
-8.0907e-06
-1.6961794e-05
1.0552619e-05
1.0892097e-05
8.857299e-06
-1.3920468e-05
-1.3534321e-05
-1.9972533e-05
2.8558509e-06
-1.4550075e-06
1.2187561e-06
1.8158042e-06
-1.8348321e-06
7.5439148e-06
-9.096985e-06
-6.1812707e-06
5.3230106e-06
-4.0702266e-06
-7.070845e-06
8.822069e-08
1.1146702e-05
2.4804235e-06
-1.0515353e-05
-7.796803e-06
-2.5569674e-05
-4.715493e-06
-6.8022155e-06
-7.3385845e-06
1.7479016e-06
2.4309475e-06
-1.6614837e-05
1.4813373e-06
-3.8069255e-05
-1.5295247e-05
-3.0230806e-06
-5.8550027e-06
1.0073808e-05
4.0139477e-07
-1.5929655e-06
-2.4499064e-05
-3.855952e-06
-1.0715146e-06
7.112428e-06
7.303e-06
-1.1186585e-05
-9.77419e-06
-2.1763237e-06
7.0008405e-06
-9.651497e-06
-1.58017e-05
-4.5632273e-06
-5.7042307e-06
-1.14033655e-05
-6.8152476e-06
-1.95349e-06
-6.795372e-06
-7.619979e-06
-2.3222417e-05
-1.4929375e-06
-2.016014e-05
-3.4348986e-07
-9.630021e-06
-6.0878443e-07
-1.5630071e-06
5.5686596e-06
-1.8460855e-06
7.5222295e-07
-1.601844e-05
-5.8892047e-06
2.7549256e-06
-6.921051e-06
-2.3958466e-06
-4.82691e-06
-2.697011e-06
-2.4843623e-06
4.0355253e-06
2.7913925e-06
9.930892e-06
-1.9805724e-07
-3.2736752e-06
-8.632439e-06
-1.0372588e-05
-3.6987246e-06
-8.417367e-06
1.78289e-05
-6.589408e-06
-4.6924415e-06
-4.6362584e-06
-1.5676871e-06
-6.7272117e-06
-1.6484254e-06
5.861718e-06
-2.1812202e-06
-1.0900755e-05
-1.4464248e-05
-1.034086e-05
-1.7539574e-05
-7.215033e-06
-3.2817707e-06
-5.3148633e-06
-2.2450754e-06
2.2872064e-06
4.8904526e-06
-8.771123e-06
7.6769975e-06
-6.393164e-06
-9.098608e-06
1.5382628e-06
-6.325766e-06
2.8426196e-06
-1.5341047e-05
1.0175864e-05
1.7455777e-05
-6.436769e-06
-1.5652206e-05
-8.832415e-06
-3.2194443e-05
-1.9107292e-05
-1.1726733e-05
-2.2349748e-05
1.1875791e-05
8.872276e-06
-4.7352505e-06
-1.6884609e-05
3.1570921e-06
-9.3577e-06
-6.642418e-06
-4.650697e-07
-5.537073e-06
-1.0245718e-05
7.795138e-06
-1.4860905e-05
1.6270875e-05
-9.197286e-06
4.2354177e-06
-8.009376e-06
4.4886233e-06
-1.1503501e-05
6.4621927e-06
-5.0485855e-06
-1.4225911e-05
-5.0688607e-07
-1.8307619e-05
7.4385855e-07
-1.9247655e-06
1.3504883e-05
-3.0586703e-05
-1.0292005e-05
-1.368264e-05
1.7457849e-06
-2.7331698e-06
-5.7035495e-06
-1.407827e-05
-5.671697e-07
-5.1775164e-06
1.505982e-05
-8.528301e-06
-3.3017287e-08
5.3396516e-06
-1.7636855e-06
-4.541942e-06
4.0171913e-06
6.8765453e-06
-5.7044927e-06
-1.250758e-05
7.433732e-07
-8.12918e-06
-7.2012062e-06
-5.784037e-06
1.1705727e-05
6.854642e-06
-5.1983884e-06
-2.8581944e-06
-3.5435073e-06
-1.0509199e-06
-2.507287e-07
-1.1071555e-05
-5.836121e-06
-6.471467e-06
-3.3031176e-06
-3.5359483e-06
1.0245683e-06
-1.4120028e-05
-6.5912595e-06
-8.757513e-06
-1.622955e-05
-8.155212e-06
6.1350556e-06
-4.8367074e-06
-4.4738917e-06
-1.3678629e-05
6.4585342e-06
-6.0185766e-06
-1.2673624e-06
4.1078462e-07
7.800673e-06
-2.6944792e-06
-1.3342179e-05
1.1023826e-05
-1.7645253e-06
-2.8131396e-06
-5.5443998e-06
3.4547254e-06
4.952804e-06
7.0194124e-06
-7.0781434e-06
9.00031e-06
-3.8762328e-06
-2.5014185e-06
-7.90452e-06
-2.5304635e-06
-1.20225595e-05
-1.0170138e-05
3.741601e-06
1.5358677e-05
-1.5129349e-05
-7.470025e-06
-7.118145e-06
-1.93835e-05
-1.9007137e-05
-1.6098651e-06
-1.3146985e-05
-2.002076e-05
-4.122082e-06
-3.6601034e-06
1.8663965e-05
-5.867975e-06
-5.50757e-07
-9.168438e-06
8.119791e-06
1.2679205e-05
-7.136276e-06
-1.5000864e-05
-6.783562e-06
-7.843006e-06
-4.790455e-06
1.7305238e-05
1.208968e-05
-2.209475e-06
4.4801554e-06
1.28796155e-05
-8.815623e-06
-5.835993e-06
-1.5509571e-06
1.8603689e-06
-9.791234e-06
-1.911101e-06
-1.0276322e-05
-4.7637855e-06
-5.1281186e-06
-6.9390708e-06
-2.843622e-06
1.2199425e-06
6.8470895e-06
-7.908917e-06
-2.5612085e-06
1.361322e-05
1.6271326e-07
2.0721586e-06
-8.972884e-06
-6.0547116e-08
-1.329143e-05
-8.19387e-06
-1.0201175e-05
1.5340637e-06
-3.56429e-06
5.8921714e-06
-9.774583e-06
4.869899e-06
-6.395787e-06
-6.60536e-06
-6.4798433e-06
8.2927755e-07
-6.9539124e-06
9.8178925e-06
-4.0188074e-06
2.6176294e-06
-6.877203e-07
-5.796292e-06
1.5697739e-06
-1.0034773e-05
-2.8810423e-06
-4.9856435e-06
9.691072e-07
2.9809626e-06
-2.8701522e-06
-2.8080953e-05
-2.0801147e-06
-5.8022e-06
-2.7140572e-07
-3.1719417e-06
-2.0844097e-06
-7.7086115e-06
9.728601e-06
-4.493602e-07
-1.027858e-05
-6.0380826e-06
-1.1970693e-05
-1.8606927e-07
-2.2535221e-05
-4.7744466e-06
-2.7834037e-06
3.4353893e-06
-2.087614e-05
5.566812e-07
-7.074557e-06
6.606089e-07
-1.9877967e-05
