-6.4706587e-06
5.0678395e-06
1.5497322e-05
-1.9115354e-05
-6.3515676e-05
3.822651e-06
-1.0435235e-05
-1.8736877e-05
-4.476157e-05
8.213074e-06
4.678256e-05
-1.7362654e-05
1.3971962e-05
1.1317454e-05
-2.2523996e-05
-4.4445926e-05
3.9075476e-06
-4.534649e-06
-2.2359573e-05
-8.2559025e-05
-3.8017297e-06
-1.4012778e-05
1.8279654e-05
-3.4737766e-06
-4.9391525e-05
-4.1837084e-05
-3.33066e-06
-5.905953e-05
-4.8448724e-06
-6.6601824e-05
-4.7006943e-05
1.5365391e-05
-1.548979e-05
2.2322942e-05
-8.85499e-06
1.3998181e-05
-3.0699754e-05
2.7790373e-05
1.2650446e-05
-2.2814815e-05
3.2135467e-05
4.2105352e-05
6.986757e-05
-2.7328668e-05
-3.7735557e-05
-1.925001e-06
-4.3647895e-05
-3.889099e-05
-2.1939368e-05
-5.967006e-05
6.0903617e-06
2.3332284e-05
-3.3669472e-05
-5.694022e-05
7.263815e-06
1.2784437e-05
-1.0448443e-05
-4.0256728e-05
-2.1556958e-05
-4.215634e-05
-9.796726e-05
3.5556943e-05
1.9518935e-05
-8.292526e-06
2.3702578e-05
-6.711528e-05
-3.7412105e-05
2.6109323e-05
2.753224e-06
-1.2047347e-05
-1.9875039e-05
4.6911573e-06
1.9103838e-06
1.6102542e-05
-9.435009e-05
-3.835884e-06
-2.573689e-05
-3.1598338e-05
-3.4181932e-05
-0.00011222031
-4.720399e-05
-8.832778e-06
-6.7370085e-05
-7.4434174e-05
-1.6612017e-05
-3.62327e-05
1.6399534e-05
2.4486653e-05
-7.3777396e-06
-9.519405e-06
-1.7790351e-05
2.1597668e-06
-1.559486e-05
-3.2453776e-05
-4.1085175e-05
2.3136248e-05
-3.7769118e-05
-1.359715e-05
-1.4688487e-05
-1.638692e-05
2.8613322e-05
9.770004e-06
1.2998429e-05
-4.8504826e-05
1.8082168e-05
-4.299572e-05
4.6014942e-05
-3.796104e-05
-2.8551636e-05
-7.503141e-06
-6.2535497e-07
-3.2100255e-07
3.0077013e-06
-4.458023e-05
-3.5193512e-05
-3.4892015e-05
-6.0977796e-05
-5.058221e-05
1.5116469e-05
-1.8519493e-06
-8.688591e-05
-5.4658216e-05
-3.2662712e-05
-6.0529845e-05
-4.703506e-05
-1.8146742e-05
3.7592283e-05
1.2646055e-05
-3.154976e-05
-4.5589957e-05
1.9932977e-05
-9.589806e-06
-5.0803814e-05
-4.398388e-05
-4.626967e-06
2.2068272e-05
-4.2334825e-05
-5.3107266e-05
-2.6325139e-05
-5.9764884e-06
-6.897457e-05
-5.8656082e-05
2.0702655e-06
-1.055757e-05
1.5115595e-06
4.138755e-05
1.6845515e-05
5.1812756e-05
2.127603e-05
-2.5321142e-05
-3.7048525e-05
5.7480498e-05
-7.904863e-06
9.9884e-06
1.2624398e-06
-1.9329535e-05
-5.0596873e-06
1.1511244e-05
2.2467466e-06
-3.8249113e-05
-0.00011325844
-1.6751746e-05
-6.857992e-05
1.5413539e-06
-6.5126246e-06
-1.8540739e-05
5.1101364e-05
-4.3582488e-05
-2.177714e-06
1.3294059e-05
-1.3878251e-05
-5.6504425e-05
-5.7807215e-06
2.548908e-05
-3.9636212e-05
-3.3645035e-06
2.8757417e-05
2.8842824e-06
8.82402e-06
-1.0578386e-06
-1.718729e-05
-2.6345653e-05
-2.5626861e-05
-2.3724086e-05
2.7071921e-05
-1.9350973e-05
-1.8471866e-05
9.558831e-07
-2.4370329e-05
-3.655873e-05
7.610642e-06
-2.6167994e-05
-5.1662297e-05
-2.0099867e-05
-1.9442161e-06
-9.469748e-06
-0.000116558884
-5.4160177e-05
-5.7163847e-06
-1.6129065e-06
-5.1950068e-05
-3.9206465e-05
1.2919916e-05
-4.479961e-06
-2.9990546e-05
-3.7885704e-05
1.4163364e-05
-2.5129257e-05
-4.6114237e-05
-9.737357e-06
6.502336e-05
-2.647017e-06
-1.9362218e-05
5.5674434e-05
-1.3252846e-05
-5.289153e-05
-4.8675283e-05
-2.5575793e-05
2.4685549e-05
-3.695247e-05
-2.859084e-05
5.4668303e-06
-8.41372e-06
-5.5552493e-05
3.9174403e-05
-5.828866e-05
-1.4387449e-05
1.7551045e-05
4.1452528e-05
1.0567827e-05
2.530152e-05
-1.6846774e-05
-3.2295913e-05
-6.0270773e-05
-3.7139413e-05
-4.8809678e-05
4.896408e-07
3.2791722e-05
2.0087033e-05
-3.421768e-06
-4.41018e-05
-5.661407e-05
-8.797172e-06
6.5730296e-06
-1.6450715e-05
-7.316528e-07
-5.7948222e-05
2.1707654e-06
4.09768e-06
-2.1371037e-05
3.028482e-05
-3.0123467e-06
-3.321436e-05
-3.475679e-05
-1.9491332e-05
-1.1154594e-05
-6.5111395e-05
-3.577437e-06
1.4888425e-07
-2.7083224e-06
5.054865e-06
1.8009945e-05
-5.4483144e-06
-7.6207793e-06
-3.7875496e-05
-5.3598957e-05
1.8382923e-06
-2.1704082e-05
-4.811925e-05
-5.7186327e-05
-4.1498086e-05
-5.34849e-06
1.2719001e-05
-1.2245023e-05
3.962321e-05
1.944798e-05
-5.8091693e-05
-9.0743215e-06
-1.9601157e-05
-2.3581746e-05
-4.391364e-05
2.7358288e-05
-6.087789e-06
-6.230952e-05
6.2630664e-07
-7.2670446e-05
-2.135722e-06
-2.9739569e-05
-3.6444984e-05
6.5065535e-05
-2.5629415e-06
2.8683067e-05
-3.8566483e-05
8.346353e-06
3.5746572e-05
-4.2220378e-05
-5.4132484e-05
-1.3722247e-05
4.3518514e-05
-4.812437e-06
4.1168798e-05
-9.285383e-06
1.2751233e-05
8.673948e-06
3.3447966e-06
-1.8958444e-05
-3.7011796e-05
4.9987702e-05
-1.1513092e-05
4.5676607e-05
4.596758e-06
-9.583608e-06
-6.7558016e-05
6.7326866e-05
3.0493995e-05
-6.087567e-05
-3.192473e-05
2.2408317e-06
4.232077e-05
-5.598079e-05
-2.0588232e-06
-2.2966527e-05
-1.4258928e-05
-2.6554288e-05
-1.2009182e-05
-7.0038644e-05
-4.9329767e-05
2.9994344e-05
-1.8029748e-05
4.5212136e-07
-4.663177e-05
-6.7727786e-05
-1.30779135e-05
1.4198622e-05
-5.7624704e-05
5.2869217e-07
-1.3806817e-05
-1.64438e-05
-3.3174874e-05
1.1384309e-05
6.567067e-05
2.8309337e-06
6.1313845e-06
-6.28102e-05
-4.6916033e-05
2.1048749e-05
4.480072e-05
-7.867876e-05
-3.664168e-05
-4.8011723e-05
-9.073736e-06
3.1740412e-05
-3.1271746e-05
-1.6106998e-05
1.0214917e-05
-1.6755235e-05
3.0967362e-06
-2.5587995e-06
5.978584e-05
-3.5839603e-05
-7.997678e-05
3.7233207e-05
1.7561335e-05
2.1816271e-05
-6.521913e-06
5.4647994e-06
2.6974534e-05
-4.566319e-05
-2.7649277e-05
2.5731804e-05
4.5649893e-05
-2.9891135e-05
-0.00012817715
3.5528494e-05
3.362187e-05
2.4802106e-05
3.472405e-05
2.623465e-05
1.34915e-05
-1.8166587e-05
-3.2651733e-05
9.121568e-06
-3.666542e-05
-6.95264e-05
1.5643489e-05
-1.476867e-05
1.4392352e-05
-1.9504301e-05
-1.4325512e-05
4.1588173e-06
-4.3408996e-05
1.9872828e-06
2.6898104e-05
3.1042542e-05
-1.8215309e-05
-1.7988727e-05
-3.5962148e-05
-9.887259e-06
1.8392924e-06
-4.2275697e-05
-1.1516782e-05
8.2320985e-05
2.9407322e-05
2.780386e-05
1.296435e-05
1.7230188e-05
-2.6204855e-06
2.0353502e-05
3.1814784e-06
-3.1575473e-05
-5.250828e-06
-4.677519e-05
-3.7155973e-05
-2.85856e-05
-1.9652352e-05
-1.6180264e-05
2.6747059e-05
-1.481933e-05
-2.1834599e-06
-1.5975256e-05
-3.086414e-05
5.6015757e-05
-3.6651298e-05
-4.540046e-05
-2.1042506e-05
1.1318064e-05
-5.887057e-05
-1.1572331e-05
-3.0113222e-05
-9.876086e-06
-2.3113027e-05
-4.125589e-05
-5.137541e-05
4.0197306e-06
-1.724473e-05
2.0087373e-05
4.516642e-06
5.5142036e-06
1.02368285e-05
-2.5084022e-05
4.772798e-06
3.9398174e-06
-5.46873e-05
-3.881222e-06
-4.2962023e-05
3.487073e-05
-2.5569294e-05
-1.9188015e-05
-1.1274261e-05
1.2961671e-05
7.732022e-05
-4.8491518e-05
-2.8371862e-05
-3.1651736e-05
-1.631837e-05
3.8094282e-07
2.236361e-05
-1.948446e-05
-9.0391484e-05
-2.0100588e-05
8.620548e-06
1.0090746e-05
1.568321e-05
2.9004514e-05
-8.662392e-06
-6.142079e-05
8.802331e-06
-7.967106e-07
-7.876668e-05
-4.887405e-05
7.887413e-06
-9.595246e-06
-2.1330057e-05
3.0497664e-05
-3.0155212e-05
-1.7832838e-06
5.2214767e-05
5.447222e-06
-1.24242015e-05
7.89664e-06
3.423521e-05
-3.9102233e-05
2.303763e-05
-1.3164039e-06
-3.2859927e-05
-3.334924e-06
4.058552e-06
-3.150103e-05
-1.36285635e-05
-4.2458927e-05
-8.723684e-06
1.9345925e-05
2.5808957e-05
-3.5030684e-05
-1.3403808e-05
-3.1006115e-05
-1.5269945e-05
2.4319702e-06
-9.475535e-05
-3.2206277e-05
-7.426245e-06
-1.40774255e-05
9.94818e-06
-5.830121e-05
-7.790364e-05
-5.168858e-06
0.00012424383
-3.6943744e-05
-3.9417246e-05
-7.135631e-05
1.424589e-05
-3.3231594e-05
