0.0057075433
0.00014595804
-0.00016309861
-0.0003720886
0.0037504828
0.0003578681
0.00019280407
0.0041908557
0.00037092736
-4.2001324e-05
-0.00029786394
-0.0005313659
-0.00045942687
-5.0366394e-05
6.8583184e-05
0.0003341047
-0.0011732037
-0.00045884956
-0.00046985736
-0.000771621
-3.4050954e-05
-0.0019379389
0.00052862224
0.00010573294
-0.0005714559
0.00042595135
-0.0001820358
-0.00019010904
-0.00038878588
4.0077957e-05
0.00054687675
-0.0007390856
-0.0019462347
0.00039015457
0.00083542545
2.7326403e-05
-0.00010904536
0.0009915908
0.006869886
-0.00011640113
0.005378649
0.00049044186
-0.00073184655
-0.00036959734
-0.0002873604
-0.00012704085
-2.3874018e-05
-0.0015176297
-0.0019602412
0.0011230309
-0.00024909782
-0.0019579628
0.0052005476
-0.0009668458
-0.004053227
-0.0002683641
-0.0006356024
0.0013114425
-0.0003106684
3.160818e-05
0.0001255341
0.0007466816
0.0025790075
-0.000572171
-0.00014598138
-5.170067e-05
0.0015675362
-0.0012857798
-0.00021984336
-0.00048626144
-0.0009502094
-0.0010465451
0.0016551558
-0.0010134175
-0.0030541858
-0.00014023417
0.00028482836
0.002280931
0.000357917
-0.00041055918
0.0020966753
-0.0007778826
-7.45188e-05
-0.000286439
0.0010316593
-0.0014681526
-0.0013248678
-0.0006365963
-0.0036717963
-0.0023932143
0.00062241865
0.0002592476
0.015693007
0.004812141
-0.0003034961
-0.00046324197
-0.0010297811
-0.00027611526
0.00036135834
-5.1934352e-05
0.0008910037
-0.0031627207
5.4649056e-05
0.00010812709
0.008541747
0.001487473
-0.0012736672
0.0005392337
0.0002559329
-0.0002631193
0.0015025749
0.00015347806
-0.0011965014
-8.711951e-05
-0.0014005468
-0.0005372797
-1.2252783e-06
-0.003483599
-0.00039784628
0.00042070332
0.0010095194
0.0037448576
4.1364117e-05
0.0015708022
-0.0018645315
-0.0012018686
0.00035528795
0.00034356734
