3.65593e-05
-6.4340515e-05
8.7149e-05
9.663536e-06
-1.2552455e-05
-0.00015462628
8.6739485e-05
3.738985e-05
-5.8389065e-05
4.5647364e-05
3.288072e-05
1.0697744e-05
1.22111105e-05
-1.6003463e-05
-0.00011032302
-5.424445e-05
-0.00012667962
-5.074792e-05
0.00015071906
-6.421699e-05
-4.3023407e-05
-4.9982016e-05
5.224619e-05
3.021955e-05
-1.9434812e-05
-2.2416094e-05
3.7466136e-05
3.2710373e-05
-7.75728e-05
1.3645754e-05
3.4975967e-06
2.2905542e-05
3.7559093e-05
-0.00018431983
-8.121092e-05
-3.3311004e-05
9.278575e-05
-7.6887345e-06
-4.754216e-05
-7.649499e-05
-7.868756e-05
1.0664269e-05
2.0018977e-05
-0.00012932443
-5.1756186e-05
-7.2994226e-05
-8.4004925e-05
-2.768462e-05
-1.5279853e-05
-7.178683e-05
-0.00011844451
-3.571747e-05
7.10141e-05
-0.00017324364
1.4702965e-05
8.6460626e-05
-3.297821e-07
6.471444e-05
2.8890265e-05
-0.00030580847
-0.00012198428
-0.00010404233
-4.96226e-05
3.392956e-05
-5.148698e-05
6.29165e-05
1.6040749e-05
-4.2874686e-05
-1.08245695e-05
-0.00010418473
-1.264493e-05
6.4530504e-05
-6.037059e-05
-2.8392778e-05
6.442025e-05
4.1341267e-05
1.8463019e-05
8.077332e-05
-0.00019453035
5.724955e-05
-8.50549e-05
0.00010079308
2.7115933e-05
-8.4171625e-05
6.514022e-05
-3.8607555e-05
6.0954964e-05
-0.00016052494
-3.8404733e-06
-9.5312535e-05
0.00011582073
-3.269085e-05
6.3191124e-05
-6.3684856e-05
-0.00012246009
-4.378863e-05
-0.00010461795
6.6810775e-05
-0.00011296128
-0.00010140597
8.218921e-05
-4.7005095e-05
-7.9902886e-05
-9.146955e-05
3.888858e-05
4.958312e-05
3.463861e-05
2.8336552e-05
0.00014109173
3.8368285e-05
5.333912e-05
-1.8825707e-05
4.0867606e-05
4.594294e-05
0.00022701998
-2.375516e-05
-0.00020403568
-3.7744667e-05
0.00012947603
-7.110657e-05
0.00012093593
-7.364381e-05
2.5468307e-05
1.0153741e-05
4.4033102e-05
-1.866922e-05
-2.1746653e-06
-1.112582e-05
-2.359481e-05
4.222561e-05
-0.00010078962
-4.0677547e-05
8.9237816e-05
2.6827975e-05
-8.417067e-06
4.0014156e-06
0.00025409125
-3.0816157e-06
-4.071821e-05
3.7445752e-05
3.165581e-05
-0.00013151644
-1.1974389e-06
5.1883093e-05
-8.093881e-07
-2.0225652e-05
-4.3052103e-05
5.575895e-05
-8.3818464e-05
1.1891732e-05
6.747231e-05
-1.1945895e-05
-0.00011801793
-2.790538e-05
-3.5575325e-05
-5.2752944e-06
-2.4724406e-05
-1.3693769e-05
-8.878376e-05
1.6151836e-05
-9.782808e-05
-0.0001351685
-5.0319526e-05
7.832074e-08
6.2127016e-05
-3.0863288e-05
-2.7849741e-05
-2.8437924e-05
-9.8214216e-05
3.0492361e-05
-9.708005e-05
1.2020996e-05
0.00011591154
0.0001592267
-6.5174696e-05
4.86029e-05
9.6355434e-05
3.8661463e-05
-9.674492e-05
-4.8593185e-05
7.659535e-05
-8.088581e-05
2.5614352e-05
-8.706539e-06
-8.4225925e-05
-1.1968762e-05
3.5884666e-05
5.2078965e-05
-6.868717e-05
-2.8383947e-05
2.8350643e-05
8.297308e-06
2.356336e-05
-7.437426e-05
-0.00010672647
-8.129477e-05
-2.3099248e-05
0.00013952456
6.5211185e-05
-3.1350213e-05
3.4159733e-05
-1.5199109e-05
1.1471528e-05
2.450778e-05
3.2760112e-05
-6.337088e-05
-6.821583e-05
-2.346057e-05
0.000113372516
7.747921e-06
-7.8158235e-05
-6.229924e-05
-7.591805e-05
2.4825072e-06
6.861838e-05
-2.6817113e-05
-9.100965e-05
2.8320675e-05
-8.5203836e-05
-2.6326885e-05
-7.60092e-05
-3.5494642e-05
-5.0440543e-05
-1.9921526e-05
-9.539754e-05
-0.00010908644
1.879584e-05
5.7456116e-05
1.700516e-05
-0.00017990098
4.1478153e-05
6.430353e-05
8.139759e-05
5.9617934e-05
-4.874516e-05
-5.0656537e-05
-0.0001087142
-4.5996192e-05
5.336113e-05
-4.4496523e-05
-4.3549244e-05
-5.601298e-05
-7.935293e-05
-8.677732e-05
-1.3247416e-05
-1.5541282e-05
-9.4553296e-05
2.90838e-05
-3.827291e-05
-0.00012793945
-0.00014399922
5.2270266e-06
-5.792323e-05
-0.000102947466
6.172102e-05
4.691562e-05
