2.338321e-05
2.8001246e-05
-1.9866879e-05
2.918269e-05
5.5715536e-06
4.2017225e-05
3.3267902e-06
-1.4245904e-06
3.979565e-06
-0.00010118926
-1.8744635e-05
-1.3819092e-05
4.7734525e-06
2.0461262e-05
-9.292095e-05
6.388885e-05
-7.387029e-06
-2.9643796e-05
4.696459e-05
-4.1127827e-05
-3.1262025e-05
-3.316349e-05
-2.2135044e-05
-4.0386018e-05
-2.4178933e-05
-7.374531e-05
-3.2595333e-05
4.392601e-05
6.765137e-06
2.191453e-05
-1.8078197e-05
-3.1809497e-05
1.830961e-05
3.1781383e-05
3.2646338e-05
-2.3042708e-06
-1.0360234e-05
3.0720403e-05
-4.564334e-05
-1.2183196e-05
-8.833817e-05
-2.3648958e-05
-6.74146e-05
-2.0952366e-05
5.5211967e-05
-2.3800403e-06
1.5784812e-05
-3.289415e-05
-3.6957295e-05
-2.0687614e-05
8.501123e-05
1.8680032e-05
1.1097845e-05
1.0172476e-05
5.7397547e-06
-6.739036e-05
2.5919826e-06
-7.819076e-05
2.0057429e-05
-2.1340922e-05
-3.1141943e-05
-0.00010780055
5.452489e-06
6.3548956e-05
2.760277e-05
2.7582557e-05
-4.5521785e-05
-2.1478498e-05
9.713344e-06
-6.234581e-05
2.7026044e-06
-3.888991e-05
5.1775376e-05
-5.030777e-05
3.6364836e-05
-1.0861963e-05
-3.4168144e-05
1.0995133e-06
-5.053098e-05
2.1576034e-06
-4.1250663e-05
-2.5158335e-05
2.059537e-05
1.0274641e-05
-1.0556221e-05
-5.903273e-06
7.5722005e-06
-4.4929016e-05
-2.2828319e-05
9.758998e-05
-1.5004117e-05
-4.4378103e-06
-3.6451576e-05
-1.3168096e-05
-0.00011406138
6.0115744e-05
1.702664e-05
2.5698324e-05
-4.2324627e-05
2.3263176e-05
-2.3086204e-05
3.3015025e-05
-2.8792513e-06
-7.065669e-05
0.00010426298
7.427211e-05
3.7061982e-05
5.871392e-05
-2.2387947e-05
-2.6307875e-05
4.539157e-06
1.2915145e-05
1.6117166e-06
5.80526e-06
5.604584e-05
-4.2123804e-05
-8.857298e-06
2.7167081e-05
-1.0698691e-05
-6.034911e-05
-3.710693e-05
-5.2419628e-06
-4.1019714e-05
2.787621e-05
4.9781665e-05
-3.6295332e-05
-4.192933e-05
-4.4053108e-05
-2.0598925e-05
-2.112055e-05
-6.051218e-05
6.220345e-06
2.5755466e-05
-2.2406193e-05
-5.7451678e-05
-9.113638e-05
-7.268656e-05
-1.0806149e-05
-4.3786797e-05
-2.5611367e-05
-8.673007e-05
9.5793155e-05
5.7205052e-05
5.733151e-05
-2.5429823e-05
1.1242948e-06
1.672047e-06
1.3534549e-05
-6.635483e-05
5.0649945e-05
7.4360815e-07
-2.7183385e-05
-4.7365334e-05
2.4788912e-06
-4.4375833e-05
-2.7097452e-05
-1.591093e-05
6.0630566e-05
-4.262215e-05
-8.119879e-06
-6.621325e-05
6.1938895e-06
-4.5630597e-05
-3.7862243e-05
2.2472437e-05
8.0153643e-07
-6.174415e-06
-1.0249057e-05
3.105895e-05
-3.303923e-05
-4.366385e-05
1.3692571e-05
-1.4951581e-05
-7.629478e-05
-4.170009e-05
-5.579234e-05
1.9954234e-05
-5.2255866e-05
9.286019e-06
-5.9456208e-05
9.733476e-06
-4.3933447e-05
1.864268e-05
-4.5271776e-05
-6.6954504e-05
-3.8759367e-07
-1.26657715e-05
3.5197543e-05
-5.081981e-05
9.361874e-06
-1.1410428e-05
-7.9863756e-05
5.8148824e-05
-5.802671e-05
-1.6688982e-06
7.943989e-06
-9.3470786e-05
1.7129627e-05
-1.9987054e-05
4.908879e-05
-2.4204732e-05
-2.3380053e-05
-3.101334e-05
-4.514817e-05
-0.00012380289
1.9721112e-05
-2.4030038e-05
-5.343603e-06
4.3220416e-06
-7.548777e-06
2.410649e-05
-2.526678e-05
-2.3430784e-05
3.781778e-05
5.1180697e-05
5.557067e-05
8.580854e-06
-9.200573e-05
-2.341825e-07
-2.2689777e-05
-4.2351832e-05
-3.685637e-05
-2.0428448e-05
-5.1643787e-05
-1.985461e-05
-4.1543233e-05
4.504379e-05
1.3044054e-05
7.304824e-05
-8.8491215e-06
1.5732222e-07
5.5273736e-06
-9.258789e-06
-4.8285907e-05
6.97061e-05
-4.092096e-05
1.55067e-05
4.743151e-06
3.43471e-05
6.456336e-05
-5.7784506e-05
-2.9873006e-05
-3.2315544e-05
-2.1633361e-06
8.857865e-06
-1.1020027e-05
-2.210581e-05
-5.7993497e-05
-0.00011150524
-2.7679178e-05
2.6415684e-05
4.601155e-05
1.2245867e-05
-3.4274693e-05
6.59317e-07
4.719377e-06
-6.915756e-05
-3.4514534e-05
5.485831e-05
-6.073574e-05
2.1395064e-05
-0.00010304212
-8.282251e-06
-1.7010918e-05
-8.655751e-06
2.4690846e-05
-3.2807857e-06
-7.082091e-05
-6.224029e-05
-8.090627e-05
-6.1494816e-06
3.8670496e-05
1.4725268e-07
-3.217779e-05
5.0910043e-05
-4.0507803e-05
9.450989e-06
-6.120464e-05
-1.11443205e-05
5.7617613e-05
-8.997226e-05
-5.2811165e-06
-8.129586e-05
1.762088e-05
6.982974e-06
9.2538426e-07
3.696107e-05
7.446363e-05
9.271303e-06
1.7051972e-05
-8.2951265e-05
1.7915701e-05
-0.000115516894
5.415361e-05
2.5641057e-05
1.2117488e-05
-6.7542685e-05
1.0751239e-05
-2.9302748e-05
1.0215451e-05
-2.3958792e-05
-3.8560913e-05
2.3747349e-05
-3.631236e-05
-5.901591e-05
5.7710033e-05
-1.4882755e-05
1.7598284e-05
-1.4062517e-05
7.059656e-05
1.783343e-05
-1.3478836e-05
-1.49299285e-05
-2.3939194e-05
-9.902262e-06
-1.41251185e-05
7.416864e-07
-4.927513e-05
1.2537283e-05
-5.9078953e-05
6.0009646e-05
3.3354238e-05
-7.539649e-05
2.5955933e-05
1.0862684e-05
1.0472075e-05
0.00010346694
3.2615317e-05
-3.0512989e-05
1.074672e-05
-1.731516e-05
-2.4431025e-05
5.640129e-06
2.827014e-05
-3.1789485e-05
5.24369e-05
-8.6753884e-05
7.663125e-06
6.46146e-05
-6.362763e-06
-1.2028672e-06
-5.8947235e-06
-3.7914535e-05
5.3704043e-06
-3.0027935e-05
-7.6210094e-06
5.2914027e-05
-6.819717e-05
3.7082238e-05
-4.2689288e-05
-5.7966303e-05
5.2840074e-05
-3.4374385e-05
2.2228925e-05
-1.0695141e-05
-7.302619e-05
-4.3403303e-05
-9.5959884e-05
-3.4891742e-05
8.357783e-05
-2.6841999e-05
2.4477752e-06
9.569998e-05
-1.8487892e-05
-2.7871129e-05
2.6468399e-05
5.0757785e-06
-7.413895e-05
-5.1195584e-05
-4.4557884e-05
-1.1893623e-05
4.5655324e-05
-2.7415372e-05
5.8877285e-05
-5.2195126e-05
1.4049404e-05
-2.5435052e-06
-1.1661241e-05
-2.4276462e-05
-8.753827e-06
5.4542645e-05
-5.9330478e-06
-7.4096875e-05
6.2988125e-05
4.0220875e-05
2.9148232e-05
-1.1482861e-05
3.911612e-05
-6.3117215e-05
1.1564655e-05
-1.7600423e-05
-5.9241702e-05
-4.563887e-05
-2.0969574e-05
4.7948786e-05
-6.503968e-05
-1.3258951e-05
-4.481516e-05
-5.8942438e-05
2.188232e-06
-3.785203e-05
-3.7826263e-05
-2.5705473e-05
4.412185e-05
-3.4499648e-05
-1.5113407e-05
-5.6850586e-05
2.5334288e-05
6.8601985e-06
-7.3151e-06
-3.0221792e-05
2.6070154e-05
-2.537417e-05
1.1621701e-06
1.1506225e-05
9.204009e-06
-3.389622e-05
1.6115614e-08
-3.5562825e-05
-7.784245e-06
-6.2864114e-05
-7.842449e-05
5.2139067e-06
-2.8196422e-05
-4.4663233e-05
1.0900608e-05
2.6144106e-05
-2.2650564e-05
-3.224403e-05
-2.285236e-05
-3.824866e-05
9.013037e-06
-3.0535783e-05
-5.087456e-05
-1.7068836e-05
1.5424961e-05
7.647213e-06
8.096759e-05
1.2759652e-05
-4.6719506e-05
-4.5575234e-05
7.2310077e-06
4.365205e-05
-2.4529845e-05
-8.2899705e-06
-2.2807184e-05
-1.0224483e-05
-4.160082e-05
-8.237217e-06
-6.3931475e-05
3.8671365e-05
2.8273338e-05
-3.3286156e-05
-2.2596818e-05
-3.793892e-05
-1.3632258e-05
2.5538184e-05
-1.157606e-05
-3.8416885e-05
-6.726873e-05
-2.9329492e-05
6.876346e-06
-7.6325e-05
-4.659622e-05
2.5218735e-05
-5.925276e-05
-3.6583886e-05
2.9312314e-05
-1.7111214e-06
-3.119607e-05
8.304313e-05
3.8691098e-05
-1.2346208e-05
-6.802906e-05
7.124284e-06
0.00010153842
-3.2673946e-05
-2.2913066e-05
-3.0904026e-05
-8.158651e-06
-1.5908334e-05
-3.5041256e-05
1.65415e-05
-6.8038564e-05
-2.7284412e-05
-5.1619922e-06
-5.297326e-05
-8.843295e-06
-9.44748e-06
-2.8665238e-05
-1.4833972e-05
-5.069018e-05
-6.597188e-05
-1.8736908e-05
3.051764e-05
-5.9674912e-06
-1.8259761e-05
3.095914e-05
1.249196e-05
-7.4218195e-05
1.5937523e-05
6.433036e-05
-3.8510963e-05
-4.4017033e-05
-2.4598006e-05
-4.8093516e-05
5.194956e-05
7.5521143e-06
-4.5715697e-05
-2.9291203e-05
-4.2794993e-05
-0.00010634672
