-1.9296841e-07
3.5745798e-05
7.434281e-05
1.7497107e-06
-3.3502292e-05
0.00023842813
-6.380229e-05
7.814743e-06
2.6459778e-05
-3.4365552e-05
-3.395697e-05
0.00015184194
-0.00015901554
-0.00011791406
-0.00012812148
2.6851972e-06
-3.2938446e-05
-6.351128e-05
-6.658988e-05
-5.7971658e-05
6.310492e-05
3.0872434e-05
4.1222844e-05
4.185806e-05
-5.6259418e-05
-8.593127e-05
0.00010257455
3.7819154e-05
-1.966569e-05
3.9288712e-05
0.00013134036
-5.0005587e-05
5.7158333e-05
-0.00015547042
4.0761497e-06
-0.00010140956
-0.00015194021
-6.344918e-05
8.7049826e-05
2.8881539e-05
5.7095647e-05
-8.7605185e-05
6.236471e-05
-4.655731e-05
1.9336812e-05
-2.8448687e-05
8.02975e-05
-0.00010142033
9.191574e-05
-2.0838539e-05
-9.456815e-05
5.7045916e-05
0.000120138786
5.1034614e-05
6.380909e-05
-0.00010954282
-0.00010340847
-9.743077e-05
9.655411e-05
0.00010683382
4.4124805e-05
-4.5079047e-05
0.00014389664
-7.5274525e-05
5.3927615e-05
-6.375737e-05
-2.626658e-05
-1.266027e-05
0.0001405802
0.00015024754
3.3158958e-05
0.00011879678
-7.094555e-05
-0.000113653456
0.0002165473
0.00010196801
0.00013274119
0.00017480369
9.657773e-05
1.917783e-05
-3.144106e-05
0.0002312327
-0.00022338291
2.3537503e-05
7.3385704e-06
-7.44053e-05
-7.5385586e-05
-0.0001651375
7.102189e-05
0.00013732433
5.8266138e-05
-0.00012577507
1.3190505e-05
0.0001225295
-0.00015812344
-0.00011336343
2.3330194e-05
-4.180753e-05
5.9555678e-05
-3.3191234e-05
6.447505e-05
1.9852721e-05
0.00012437445
-6.0067858e-05
-5.931992e-05
2.8502545e-05
-0.00011119745
-6.8714115e-05
-0.00010077042
1.591728e-05
7.1170056e-05
-0.00017026342
-7.472356e-05
1.5513167e-05
6.9181086e-05
0.00013210962
-0.0002716981
0.00021435661
-0.00018314652
-6.414993e-05
0.00012571894
8.2229475e-05
0.00015988007
-0.00010145952
-9.187541e-05
9.4015624e-05
-8.6553e-05
-8.553395e-05
9.5405085e-06
8.8489265e-05
0.00010252065
-0.00017288349
0.00012950679
-0.00019424874
6.6146117e-06
-0.00010900013
1.7201595e-05
-3.719244e-05
-1.8044882e-05
0.00011966439
-6.797069e-05
6.3751068e-06
1.152348e-05
8.12203e-06
0.00010980763
-0.00016144788
0.000110469
0.00010455872
-7.818871e-05
-0.00013952564
2.4173729e-05
-9.231557e-06
-7.593875e-05
-7.725204e-05
-0.00012768642
4.59152e-05
-0.00011725057
-0.00016632485
0.00011786704
2.4028133e-05
6.3799576e-05
0.00016490101
-5.0570605e-05
4.416872e-05
-6.6105524e-05
-0.00020566244
-8.299586e-05
-0.00016643904
3.9582195e-05
6.667687e-05
0.000143438
9.716873e-05
3.574854e-06
-0.00022690384
5.2553773e-05
-7.728051e-05
6.535494e-05
2.1211874e-05
0.00018491814
-9.3791365e-05
0.00018841414
-1.0470277e-05
3.7762175e-06
3.6795896e-06
6.977806e-05
5.0950523e-05
-5.3656718e-06
1.10657575e-05
-3.1034615e-05
-0.00013563508
-0.000120988625
-5.9269787e-05
-7.3931114e-05
-9.071155e-05
-8.865601e-05
8.309174e-05
5.2872896e-05
9.752052e-05
-8.456336e-06
1.8266037e-05
0.00013323803
6.956031e-06
4.106828e-05
5.664824e-05
-0.00021701606
-5.166515e-06
-0.0001213637
9.6695294e-05
-0.000101649435
-0.00012875351
0.000117245334
-7.042866e-05
2.0214542e-05
-0.00018817442
5.341282e-05
-1.9180592e-05
-7.685223e-05
-7.904516e-05
-0.00013342428
4.7147194e-05
-0.00020329512
-5.6188623e-05
-0.00022715703
0.00025491774
6.35152e-06
-8.828656e-06
-1.5871654e-05
-0.0001477932
-6.8250454e-05
6.876387e-05
-4.18471e-05
-9.974193e-05
1.2603091e-05
7.799525e-05
3.005544e-05
7.004757e-05
7.3313317e-06
-0.00011699356
-0.0001646309
5.7319096e-05
-7.7647e-05
-4.382478e-06
-5.4007187e-06
0.00012771746
5.3636293e-05
8.648154e-05
-6.129203e-05
-0.00010664821
0.00014516321
-3.461872e-05
8.116224e-05
-3.3029655e-06
-3.950987e-05
-7.838055e-05
-5.2858835e-05
0.00012390772
