9.518832e-05
-0.00021647547
-1.426054e-05
0.00023054982
4.8675156e-06
-0.00019709984
-0.00018151631
-0.00010675418
0.00017484129
-0.00019974382
-2.0434965e-05
-0.00013067645
-0.000101722915
1.2977726e-05
2.4481129e-05
-8.152052e-05
-6.1275446e-06
0.00060863997
-0.0001320169
2.3653256e-05
-2.6456306e-05
-0.00030595376
7.977511e-05
-9.4079995e-05
2.6322787e-05
-8.946103e-05
-3.8199014e-05
0.00016955589
-0.0001713314
0.00022628886
-5.6395806e-05
0.00016874578
1.6813854e-06
5.707957e-05
-3.328031e-05
6.243213e-05
3.569643e-05
0.00025234825
-5.6238063e-05
-0.00022327264
-0.00020003543
-0.00010506596
0.00040697758
6.1852676e-05
-0.00012632298
-0.00017684803
-5.097731e-05
0.00013617417
-5.546242e-05
-0.00019301462
-0.00022009095
0.0001198881
8.090057e-05
0.00018803433
-0.00030097517
1.2854551e-05
0.0002709986
0.00051735435
0.00011897151
6.734188e-05
-2.7441638e-05
1.4915011e-05
0.0001326518
-6.269445e-06
-0.0001798031
-1.7545071e-05
-6.246143e-05
-0.00040991337
-0.00015379248
-0.00020845995
0.00021328544
3.781098e-05
-9.771795e-05
-2.8439732e-05
0.0003693247
-9.201913e-05
1.3055992e-05
5.9398746e-05
9.522738e-05
-0.00010006135
-6.015822e-05
3.984609e-05
-0.00012127801
1.13604565e-05
0.00029600927
-3.8289338e-05
0.0001567982
1.2667627e-07
0.00029068565
0.00016430904
-0.00011198088
-0.000102383325
-9.3815186e-05
-1.0105274e-05
-3.855398e-05
4.9572438e-05
-0.00058970304
0.00010918176
-0.00011817909
0.00019282915
8.588576e-05
-0.00014383018
-0.00030250894
7.6539356e-05
-7.314467e-05
0.000108007094
-0.00011059192
-0.00015589576
0.00018424868
-4.1402477e-06
0.00021923371
-6.261717e-05
-0.00027821164
0.00014623825
-0.0001363483
0.00012781595
-0.00042168252
-3.8970953e-05
-3.726844e-05
0.00021743051
-0.00018438206
0.00014885409
2.8302033e-05
-0.00011428913
4.7120095e-05
0.00040328887
9.568995e-05
-0.0003339085
