4.907546e-06
-1.3622877e-05
-1.3409154e-06
-9.984715e-08
5.7492816e-06
3.0621518e-06
2.2411602e-06
-1.9918618e-05
3.3798763e-06
-8.414451e-07
1.8107252e-05
-4.4392286e-06
-3.5632443e-06
-1.1781074e-05
1.41687515e-05
-1.9146828e-05
-1.1887003e-05
-6.790238e-06
-5.8518426e-06
-6.3653047e-06
-1.0640064e-05
-2.714802e-06
3.217008e-06
1.0422455e-06
-1.1836905e-05
-3.306834e-05
-2.0476327e-05
8.61903e-07
1.2268656e-05
1.1563158e-05
5.403178e-06
3.2528778e-06
-2.7913488e-06
-4.0926452e-07
1.7922881e-05
-7.179307e-06
1.7143807e-07
-1.2893807e-05
-2.1359094e-05
1.199264e-06
-1.1349021e-05
-1.0550462e-05
-1.1834734e-05
5.4111724e-06
1.6348235e-05
-1.3120352e-05
-1.7116849e-05
-7.669401e-06
-1.1229924e-05
-6.1663186e-06
-2.4414e-06
-2.652983e-05
-4.094361e-05
-1.3157071e-05
4.0339137e-06
1.7926686e-05
-1.4469996e-05
-6.332114e-06
-2.000797e-05
-1.2157155e-05
-4.3541063e-06
3.7959892e-06
-6.8247564e-06
1.1011894e-05
-5.5628952e-06
3.877633e-05
4.9095947e-06
-5.1556635e-06
-9.774769e-06
-9.154991e-06
-6.9886446e-06
-1.4109957e-05
-1.5225254e-05
-2.0024104e-06
-1.5373596e-06
3.0037404e-06
-2.276709e-05
-2.6122074e-05
3.6469298e-06
-1.3584092e-06
-1.2293493e-05
1.302065e-07
-1.9133188e-06
-7.9970744e-07
2.3123457e-06
3.191764e-05
2.4091443e-05
-5.1195493e-06
1.6113729e-05
-3.7520774e-06
-8.553816e-06
-3.9969827e-06
-1.0749502e-06
-9.637633e-07
2.2962404e-06
-3.0670185e-06
6.798683e-07
1.0962662e-05
-3.1040017e-06
-2.3172432e-05
-2.6907928e-06
3.028719e-05
-6.1451606e-06
-2.5895786e-06
-2.9930377e-06
2.114209e-05
-4.1941294e-06
3.1602626e-06
-3.7213422e-07
-1.9330619e-05
1.2156314e-05
-9.903337e-06
7.239952e-06
-1.2120545e-05
-6.9692337e-06
5.2581026e-06
-3.8187786e-06
3.547182e-06
1.5077423e-05
-1.1866367e-05
-2.872369e-06
-9.620097e-06
1.3133661e-05
-7.951879e-06
-6.0203847e-06
-4.0890045e-06
-2.514761e-06
1.2876951e-05
-1.29118325e-05
-1.3431334e-05
-7.152268e-08
1.613299e-06
5.523489e-06
6.2730005e-06
2.7729632e-06
6.917215e-06
-9.584783e-06
-2.576034e-06
-4.538065e-06
-4.3400855e-06
-3.1685628e-05
4.9024507e-06
2.0404154e-06
-1.3729118e-05
2.2080221e-06
1.6614127e-05
-1.6684628e-05
-1.3441559e-05
-1.4300542e-05
-8.151219e-06
-2.034302e-05
8.056198e-06
6.5013887e-06
-2.0153468e-05
-9.682782e-07
-5.6620743e-06
-6.7405665e-07
-8.874536e-06
-1.2807939e-05
-1.0953637e-05
2.9026558e-06
1.2241909e-05
3.278896e-06
2.8450022e-06
1.8050654e-05
5.322566e-06
-7.1426443e-06
-2.465552e-05
6.211677e-06
6.930793e-06
1.4296985e-05
-6.828908e-06
-2.2570983e-05
6.334311e-06
-4.2431737e-05
-3.3878505e-06
1.3103721e-05
-8.215223e-06
-1.7649345e-05
9.265894e-06
-9.218783e-06
-1.0602432e-05
2.475004e-06
-5.474537e-06
2.0959353e-05
-2.8660794e-05
-1.2610177e-06
3.4640782e-06
-1.5044189e-05
-2.5387415e-06
-1.5117469e-06
-4.9728933e-06
-2.105767e-06
7.3434094e-06
-1.2833019e-05
-2.4228234e-06
9.447041e-06
-4.09417e-06
2.4597102e-05
-2.3166682e-05
1.0834956e-05
4.126351e-06
1.1896033e-05
-1.6759499e-05
5.825288e-06
1.2478814e-06
-5.4504562e-06
-2.4033397e-06
7.69838e-06
-1.6399497e-05
7.4878053e-06
1.412338e-05
-3.4132975e-06
-6.2658887e-07
7.204365e-06
-2.9712195e-05
-8.4897295e-07
1.37296465e-05
-5.821584e-06
-2.3357989e-06
-8.087488e-06
2.4369008e-08
-1.0876328e-05
-4.404076e-06
-4.107654e-06
1.5972138e-05
-1.6848557e-05
-2.0755637e-05
8.537519e-06
-1.7423507e-05
-1.5701838e-05
-1.4461831e-05
-9.761105e-06
-5.230363e-06
-2.1530774e-05
1.2183802e-05
5.2833743e-06
2.2127472e-06
-3.0609688e-05
6.3744033e-06
-1.2852649e-05
5.4628304e-06
-1.4490158e-05
1.4168548e-05
5.5082332e-06
-4.4034678e-06
2.481516e-07
-5.4998877e-06
-9.430651e-07
-7.4673653e-06
-2.2283233e-05
-6.9978255e-06
2.776467e-05
-1.075053e-05
-8.065387e-06
-7.862629e-06
-2.0373258e-05
-2.8170702e-05
-3.8926773e-05
-1.3776242e-05
7.5657854e-06
-1.8851193e-05
5.206883e-06
1.6471224e-05
2.1650962e-06
7.0731535e-06
3.2555083e-05
6.749131e-06
1.6872063e-05
-4.561589e-06
-9.563857e-06
-3.6946927e-05
4.5066768e-06
-4.4898643e-06
-1.3829729e-06
-3.0863193e-06
1.0618446e-05
-2.041444e-05
-1.558469e-05
-1.0110671e-05
2.099258e-05
-2.0375697e-05
-4.9780164e-07
2.4558614e-05
5.71933e-06
-3.8482685e-06
3.6757262e-06
2.5404063e-06
-1.052008e-05
-3.91797e-06
-1.768213e-05
-9.004812e-07
1.7354943e-05
-2.8490984e-05
1.4422246e-06
-2.905569e-05
-8.0014e-06
-2.9271147e-05
-1.1678388e-05
-1.7988355e-06
1.23732125e-05
-8.741008e-07
1.0835598e-05
-5.6595263e-06
1.476924e-05
-1.3366375e-05
7.124444e-06
-2.142982e-06
-3.026613e-05
4.107055e-06
-9.961214e-06
-3.9052147e-06
7.798359e-06
-1.6607408e-05
3.540334e-06
-1.8182738e-05
-1.8380308e-07
1.7911943e-05
-1.3627704e-05
-2.9563305e-06
1.4916831e-05
-5.286833e-06
-1.9911891e-05
1.52084585e-05
1.4163481e-06
1.6527367e-05
-6.0042083e-07
4.3833996e-05
-8.241455e-06
6.045187e-06
-1.8725898e-06
-1.1479735e-05
-8.8343944e-07
-1.0006155e-05
-8.720642e-06
7.5578573e-06
1.3215441e-05
-1.6423019e-05
-2.7800675e-06
-1.12792995e-05
7.09361e-06
-1.5097997e-05
8.181596e-06
-9.970428e-06
-4.233003e-06
3.176191e-06
7.550739e-07
-3.0297367e-06
-1.8793509e-06
1.0156022e-05
-1.4761571e-05
4.7550548e-06
-1.3558771e-05
1.1094111e-07
-1.2008319e-05
9.095998e-06
-1.7284918e-05
-1.737038e-06
2.5695817e-06
-5.0043864e-06
9.978588e-06
-5.7025677e-06
-1.676665e-05
-1.4277038e-05
-7.638688e-06
2.4647657e-06
-2.102534e-05
7.680045e-06
2.2750206e-05
1.5113544e-05
-1.320913e-05
8.316632e-06
-1.313796e-06
1.3655921e-05
-3.795349e-07
-9.1151815e-06
-1.3546244e-05
-2.9756523e-06
-9.869997e-06
-7.4494683e-06
-1.1226303e-05
-5.051117e-06
3.6847493e-06
9.062775e-06
8.339511e-06
-3.2264704e-06
1.2159488e-05
9.821044e-07
-2.074307e-06
-1.2530017e-05
-9.754954e-06
2.6072692e-06
-1.9601384e-05
-2.0732027e-06
5.4202837e-06
-7.9213333e-07
-9.722388e-06
-5.529636e-06
-1.6222312e-07
-1.4894626e-05
3.4380086e-05
-3.788605e-06
-2.5829191e-05
-1.2668653e-06
2.0325108e-06
-2.0468384e-05
-3.074113e-05
5.985335e-06
3.2109376e-06
-9.25848e-06
-2.3379804e-05
-1.0990536e-05
1.4449588e-05
7.0349656e-06
-9.537909e-06
-5.986063e-06
7.702848e-06
7.3382657e-06
4.8014763e-06
1.4141059e-06
-8.616842e-06
2.1533492e-07
-3.0875585e-06
1.2009177e-05
-1.3003122e-05
-3.1358381e-06
-2.8502163e-06
-2.368473e-05
-5.570661e-06
2.0994687e-05
-1.9514328e-05
-2.7423264e-05
2.819747e-06
1.25154365e-05
3.108412e-06
8.850356e-06
-2.024123e-05
-2.2752033e-06
1.11328045e-05
1.8157367e-05
2.757246e-06
-8.0524245e-07
-9.747631e-07
-2.8539723e-06
-8.561615e-06
4.682229e-06
-5.299857e-06
9.827437e-06
-5.4736057e-07
-1.641894e-05
-2.0397756e-06
-6.5928907e-06
-1.3334924e-05
9.435306e-06
-1.9719855e-06
-2.0548006e-05
-1.06045145e-05
1.3753142e-05
-3.1345255e-05
-6.5193526e-06
4.3762625e-06
7.772826e-06
-1.4236676e-06
-1.3736848e-05
-2.3402617e-06
-2.2009908e-06
-3.7822767e-06
-3.406316e-05
-1.7044043e-05
-6.139993e-06
8.155283e-06
3.1496342e-07
-5.114211e-06
5.5568125e-07
-1.8146917e-05
-2.027499e-06
6.37902e-07
7.1561462e-06
1.4984243e-05
-1.4398213e-05
-1.0946721e-06
-2.3013665e-05
-1.1801476e-06
-1.8775396e-05
-7.932615e-06
-2.1262751e-06
6.131866e-06
3.1782295e-06
7.744275e-06
-7.699354e-06
-3.960975e-06
3.9687206e-06
-8.071656e-06
1.04943865e-05
-8.105743e-06
-1.5786738e-05
-5.7722486e-06
3.4698285e-06
1.4145785e-05
2.821426e-07
6.520823e-06
3.114665e-06
4.470204e-06
-3.4906573e-06
1.7537977e-05
-6.4185707e-07
1.4593954e-06
1.1396192e-05
-1.1970332e-05
-9.9056015e-06
4.420345e-06
-2.6548983e-06
-5.972634e-06
1.4352145e-06
7.929287e-06
1.0150761e-05
1.6957423e-05
2.6126902e-06
1.098021e-05
2.6518936e-05
-5.48647e-06
-1.8924267e-05
2.3288992e-06
6.9543744e-06
-1.4277921e-06
-1.17358795e-05
-4.3559926e-06
-5.150097e-06
-2.6567013e-06
-7.863576e-06
-1.71183e-05
-7.2163475e-06
1.2049447e-05
2.4556482e-06
6.4059377e-06
5.915945e-06
1.6248291e-06
-7.920391e-06
-4.3072955e-06
2.0278671e-06
-1.2954988e-06
1.5358759e-05
-7.3304723e-06
-8.587248e-06
7.843259e-08
-4.9171845e-06
-2.2525943e-05
-9.263585e-06
-5.2429655e-06
-1.2569611e-05
-2.1279891e-05
1.0177377e-05
4.951079e-05
-3.3956392e-06
-2.3092929e-05
-1.2583087e-05
-2.3608141e-05
3.2635594e-06
1.4903206e-05
-2.5209181e-05
-4.390703e-06
3.6962497e-06
2.7024146e-06
-6.1835876e-06
1.0549456e-06
-3.2601424e-06
2.5834124e-05
-2.6792973e-06
-1.3287866e-05
-3.3963247e-06
9.246698e-06
-4.523177e-06
-7.142135e-06
-1.11130485e-05
1.4968131e-05
-5.222404e-06
1.67463e-05
-2.8444076e-06
-7.069325e-06
-2.8385033e-05
-7.814912e-06
-1.747582e-05
-3.199141e-06
-1.2183187e-05
1.0211492e-05
-1.0931323e-05
-9.321989e-06
-4.771484e-06
-2.3509525e-05
-2.1460326e-05
3.1992204e-05
1.2344079e-05
-1.7548608e-05
-6.73838e-06
-1.0704644e-05
1.3964795e-06
-1.5842943e-05
-1.2255626e-05
2.6270689e-06
8.373756e-06
1.5525333e-05
-6.502857e-06
9.955027e-06
1.2087174e-05
1.5461117e-05
-5.846411e-06
-5.1349803e-06
-2.0897312e-05
-1.6614218e-06
-1.082369e-05
-7.67665e-06
-1.5702303e-06
-2.473956e-05
1.9840222e-06
-4.2780216e-06
3.4188838e-06
1.698017e-05
-1.078849e-06
-1.7396052e-06
7.804099e-06
-9.088277e-06
-1.4097538e-05
-3.0747144e-06
1.0560468e-05
-3.389434e-06
-2.777877e-05
1.4584578e-05
4.0912487e-06
4.6304863e-06
-1.1349808e-06
1.1087948e-05
-3.8111957e-06
1.1552007e-05
-1.2070817e-05
-9.968005e-06
1.2799737e-05
-9.599621e-06
1.0783364e-05
4.1962285e-06
-6.1559035e-06
1.5384881e-05
-5.8324918e-06
-1.1060122e-05
7.236422e-06
-1.07746e-06
-1.8515124e-05
-1.32438845e-05
-2.218486e-05
-3.0935473e-05
9.560181e-07
3.219969e-07
-2.1078422e-05
-6.9708426e-06
7.2772e-06
9.353998e-06
-2.7643323e-06
-1.2225088e-05
1.548075e-05
7.1526356e-06
3.157323e-06
-2.0824895e-05
2.7992726e-07
-3.8988564e-06
-1.1300402e-05
5.838449e-06
1.5641586e-05
-8.058802e-06
8.639565e-06
-1.5254868e-06
-2.8592365e-05
-2.3865196e-05
6.946446e-06
-2.9166851e-05
-7.779278e-06
-7.746837e-06
7.776999e-06
-1.4657447e-06
-2.0263099e-07
1.2571844e-06
-1.3257269e-05
-1.6659838e-05
-1.5717003e-05
1.2415807e-05
-9.043262e-06
-1.4921584e-05
-4.403057e-06
-1.35625305e-05
-1.9381032e-05
9.587257e-06
-1.16202455e-05
-2.9987055e-05
-1.966874e-05
-5.39948e-08
7.628341e-07
-1.816991e-05
1.586728e-05
3.6648953e-07
-1.180825e-05
-5.637636e-06
-3.9957507e-07
6.9962607e-06
-2.5896898e-05
-8.42734e-06
3.6623692e-06
-1.2806822e-05
-1.1374206e-05
-2.9499008e-06
-3.47701e-07
-8.4656685e-06
-2.5044934e-05
-1.1796267e-05
-1.4407709e-05
-1.2131142e-05
-1.1279202e-06
1.15917555e-05
-1.6190426e-05
2.0660169e-05
-9.015266e-06
-1.655195e-05
-4.5800525e-06
-1.4210462e-06
-1.3474958e-06
-2.8162107e-05
4.5860697e-06
-2.4139219e-05
-2.247541e-05
3.9743807e-07
-9.555994e-09
-1.2445234e-05
-3.724671e-05
9.363786e-06
-1.2759566e-05
3.1961579e-06
1.0304309e-07
-2.4344497e-06
-1.01976675e-05
-7.566249e-06
-2.0022655e-06
-3.4362467e-06
1.4346223e-05
-1.1977669e-05
1.3707969e-06
3.1546846e-05
-1.1759539e-05
-9.050752e-06
-6.0712523e-06
-5.130979e-06
-2.691348e-05
6.5409554e-06
-2.890698e-06
1.29650025e-05
-8.573453e-06
8.6501274e-07
3.2395976e-06
-2.5699917e-05
5.9020545e-07
-3.3009378e-06
-1.5334296e-06
-2.1376909e-05
4.0178447e-06
2.457705e-05
1.4068881e-06
-7.651636e-06
2.6747446e-07
8.9083704e-07
-2.5352514e-05
-8.999609e-07
-1.0122827e-05
1.7819508e-06
-2.4137616e-06
2.0029815e-06
-7.513756e-06
1.838204e-05
-6.1079954e-06
-6.8003246e-06
5.8140567e-06
2.5064346e-06
9.812094e-06
7.743255e-06
2.1307644e-06
-9.69362e-06
-2.4286415e-05
-1.41360015e-05
-1.4132439e-06
1.1552217e-05
-9.375672e-06
2.8575758e-07
-3.1017894e-06
1.296638e-05
-3.9826202e-07
-1.2237894e-05
1.2111918e-05
-1.6478434e-07
2.3866329e-05
6.0781917e-06
-1.41129085e-05
1.159957e-05
-6.3219395e-06
3.6189292e-06
2.8520556e-06
-1.1176015e-05
2.5517453e-05
-8.004619e-06
2.184484e-05
-8.86109e-06
1.00411025e-05
2.3187051e-06
2.7808603e-06
1.2603797e-05
-1.1419978e-05
-1.2106039e-05
-8.454857e-06
-4.259339e-06
2.3185075e-06
1.0790544e-05
-8.641521e-06
6.4085757e-06
4.1798744e-06
-4.5534366e-06
5.1700374e-07
8.828799e-07
-9.912961e-06
-2.2429236e-05
-6.9250036e-06
-4.8093298e-06
-1.3550607e-06
-1.1956162e-05
-1.5390988e-05
-1.9469326e-05
1.7581284e-05
-2.1563574e-05
5.3204312e-06
-1.5395735e-05
5.882538e-06
1.0071374e-05
-3.265225e-06
1.5470825e-06
-1.4644603e-06
-3.3373342e-06
3.1126208e-06
-1.6256e-05
-1.2110385e-05
4.593701e-06
-1.16091e-05
1.4110868e-06
-1.3426919e-05
6.4487886e-06
1.626843e-05
-1.0810397e-05
7.4892e-06
-1.5785595e-06
9.797386e-07
3.5273351e-06
-2.5711506e-05
3.268459e-06
1.6427895e-06
-1.9976026e-06
2.9536455e-05
-1.3596587e-06
-7.1522795e-06
2.9059092e-05
6.239493e-06
-1.158777e-05
-7.443376e-06
1.3207249e-05
-3.2659323e-06
7.0054216e-06
-8.5913e-06
-2.2656275e-06
5.9124777e-06
8.255401e-06
-3.4018587e-05
2.2083557e-06
1.7644006e-05
1.206279e-06
-1.0638759e-05
-5.229649e-07
-1.0862394e-05
-1.19985e-05
2.0502529e-07
-2.1989e-06
-1.0715125e-05
-2.683236e-07
-1.5703845e-05
9.289266e-06
-3.855121e-05
-9.872039e-06
-4.8151674e-06
-1.1017617e-06
1.1636846e-05
1.3641075e-05
3.873863e-06
3.4421623e-06
1.1314798e-05
-1.5996295e-05
1.2331348e-05
-1.594395e-05
4.258643e-06
-1.988424e-06
7.89558e-06
-4.7114168e-06
-7.5953485e-06
-3.7747222e-06
-2.5872785e-05
-8.431329e-06
1.7161929e-05
2.4416045e-06
1.4412162e-06
-4.9129503e-06
1.1751379e-05
2.0962798e-05
6.1512183e-06
-8.211376e-06
-7.643327e-06
2.1866386e-05
-1.995506e-05
4.5737393e-06
-2.9308245e-07
-2.4402336e-05
4.676519e-06
2.4346489e-06
4.668163e-06
-1.3309564e-06
-1.0150288e-05
1.8489806e-06
-5.326637e-06
5.9034837e-06
5.906902e-06
-1.7489349e-07
2.0540385e-06
3.3958033e-06
-3.4648917e-07
-9.672954e-06
8.090993e-06
-2.7442044e-05
-1.5573649e-05
7.326084e-06
-2.588142e-06
-2.2101523e-05
3.4074378e-07
-5.0916888e-06
3.9468096e-06
2.9155524e-06
-6.800071e-06
9.495358e-06
1.4079158e-05
-1.0038443e-06
-7.061171e-06
-6.5660756e-06
9.266077e-06
-1.1793003e-05
-2.0759906e-05
-1.6901946e-05
-1.1864482e-05
8.06656e-06
-7.512495e-08
3.11361e-05
1.5099789e-06
1.3715118e-05
-1.2291298e-05
-1.9944653e-06
7.4200293e-06
-7.581513e-06
7.748187e-06
-2.5312285e-05
-1.6884966e-05
4.847303e-06
-2.2154103e-05
4.11035e-06
-1.20162895e-05
-1.1317795e-05
-4.528413e-06
-1.6040051e-06
-3.988221e-06
-1.951215e-06
-7.106641e-06
-3.911725e-05
1.0757542e-06
-2.2405635e-05
-4.763893e-06
-7.2271273e-06
-6.6355847e-06
-1.2744429e-05
6.4492697e-06
1.1642769e-06
4.5144843e-06
-2.1910948e-06
8.4372164e-07
-4.9366474e-05
-1.2328541e-05
3.6547437e-05
-3.818515e-05
6.08812e-06
-1.4304896e-05
-2.6491976e-05
-7.905269e-06
-3.465957e-05
3.4764264e-07
-1.13304345e-07
-1.4758979e-05
-1.606147e-05
1.4743916e-05
-1.092878e-05
-4.0951854e-06
9.716862e-06
1.9256675e-05
2.6649693e-07
9.448361e-06
1.3019314e-06
-9.751654e-08
-2.0460133e-05
1.060291e-05
-1.0846065e-06
1.4471201e-05
9.9984e-06
8.657313e-06
2.4619928e-06
-9.332232e-06
4.855164e-06
-2.363719e-05
1.2444349e-05
-1.1147611e-05
1.8617116e-06
3.232916e-06
