0.007078195456
-0.006275070366
0.002017896622
0.009895113297
-0.000908397080
-0.002653384348
0.004826639779
0.003546436317
-0.008939101361
0.000527767523
-0.000550477940
-0.002182225464
-0.010879163630
-0.001309568412
0.005458964966
-0.007720880676
0.002899302635
0.003572007176
-0.002670688787
0.005873918068
0.008877773769
-0.005349732470
0.009483649395
0.001122239046
-0.009122222662
-0.003924315330
0.005838779733
-0.004437463358
0.008602605201
0.008187351748
-0.007996090688
-0.007638230454
-0.007457921281
-0.003616545349
0.003340685973
0.008872187696
0.007595799398
0.009988997132
0.000371044502
-0.007485878188
-0.007842623629
0.003019063734
-0.007749767974
0.003416351043
0.007077946793
0.006032045465
-0.003500414779
0.005643484183
0.008022710681
-0.004352224525
-0.001266541076
-0.000779017399
0.003438642481
-0.003458373714
0.003811451374
0.005785987712
-0.003091366263
0.005374192726
0.006651034113
0.007138542831
-0.009543293156
-0.008548238315
-0.009198121727
-0.009855349548
0.006636198610
-0.003936131950
0.008785670623
0.005852931645
-0.003041461576
-0.009589189664
-0.003214401426
-0.001838949276
-0.001476154430
-0.005755382590
0.001094647800
0.003013690934
0.002458870877
0.004206826910
-0.001916471985
-0.001847705804
-0.000617904239
-0.002372372895
0.006564447656
-0.009007549845
-0.010532614775
0.004153918941
0.006604862865
0.003929689527
0.005676245783
-0.008942203596
-0.003285588231
0.005424238276
0.005556425080
-0.009692605585
0.007415688597
0.002402853454
-0.007558740675
0.006367571186
0.000931129733
0.009786190465
-0.008204983547
0.008001122624
-0.004286436830
-0.002029261785
0.008972443640
0.004287412390
0.004932931159
0.007213322446
-0.005557352677
-0.009367948398
0.004076106474
0.003328051884
0.002283086069
0.001243402832
0.009354541078
-0.005411339924
-0.007319164928
0.007422892842
-0.010455358773
0.003703408875
-0.008031544276
-0.006086204201
-0.000827339012
0.011658006348
-0.006379113067
0.002625535941
0.008609225042
0.002042335691
-0.002287596464
-0.006478291471
0.007824417204
-0.005890517496
-0.007714836393
0.002331754426
-0.004667120520
0.000144987862
0.010364440270
-0.000264476723
0.000607108697
-0.003029359039
-0.005503297783
-0.007069088984
-0.001496440498
0.006485062651
-0.003899384988
-0.005887097679
-0.004058805760
-0.011017452925
-0.007010616828
0.004120923579
-0.001344632707
-0.002612657379
0.009159064852
-0.009390950203
-0.005946877878
0.010012111627
0.004776162561
-0.008530614898
0.009360797703
-0.005869012326
0.000575459038
0.006952689961
-0.004265752155
0.006841281429
-0.010347659700
0.001858002855
-0.002711108420
-0.007657818496
-0.010392528027
0.002932306612
0.005380758550
0.007120436057
0.009221658111
-0.010143551975
0.010393648408
0.004653349984
0.003521320410
-0.002485385863
0.005403891206
-0.010058515705
0.000929492875
-0.006948483177
0.010925349779
0.002227544319
-0.008382061496
-0.008187990636
0.008019317873
0.005277298857
0.008079533465
0.009221005253
-0.008196367882
0.006846153177
-0.001912874868
0.000495069253
0.006072921678
0.010910023004
-0.009339816868
-0.002553606872
0.002531596925
-0.007720591966
0.007996967994
0.004762879107
0.009672160260
-0.005481757689
-0.007729975507
-0.006914928090
-0.010035076179
-0.001781564089
0.005660149734
0.003988001030
0.005232837517
0.003834494157
0.007402617950
0.004237782210
-0.007153329439
-0.010302701034
-0.001815822790
0.005135016050
-0.003227614565
-0.008560684510
-0.007558423094
0.000538209802
0.005415226799
0.010145527311
-0.000131392313
0.001720285625
-0.002949827584
0.000947424909
-0.008774595335
-0.004879311193
-0.003259696532
0.002214664826
-0.010080785491
0.000469934690
-0.010063697584
0.000397206779
0.007038075477
0.004871036857
0.002995006740
-0.008206537925
0.010981121100
-0.000572702964
0.008815123700
-0.002875171136
0.004260204732
0.007062948775
-0.004344285000
-0.004834047053
0.006241835188
-0.009035205469
-0.004969101399
-0.000039301314
-0.009015878662
-0.007040708326
-0.010790565982
-0.002167070284
0.000599242514
-0.002759773517
0.005801095162
-0.007010040339
-0.008895854466
0.004367046524
-0.005642218981
0.009307313710
0.009357312694
-0.001261087484
0.002553188009
-0.003465260379
0.008633987978
0.009719796479
-0.005583816208
0.002164324047
0.004296262749
0.004775039852
0.005095123313
0.007661014795
-0.001479228609
0.001387622557
-0.002925969195
0.005367636215
-0.002003938891
0.001645402750
-0.008694191463
0.009337141179
-0.007928436622
-0.007011546288
0.009862337261
-0.007157391403
0.006553095300
-0.001844306244
0.001453174744
0.005779755767
-0.001985552721
-0.002501916839
0.002728568157
0.003231409471
-0.004252177197
0.001410496072
0.009013992734
-0.002497832756
-0.009813738987
0.004206238315
-0.003759675659
-0.007415999193
0.010330524296
0.008777149022
-0.004229748622
-0.001787683927
-0.002812998835
0.001566226943
0.003440413857
-0.000301498774
0.002571820514
0.008525767364
0.000030495105
0.009172012098
-0.008775100112
-0.005452482961
-0.000385082123
-0.008837179281
-0.005595614202
0.003215917386
-0.009423117153
-0.002139991149
-0.008776823990
-0.009012484923
0.006129868329
-0.008838812821
0.004917996470
0.005114842672
-0.007729559205
-0.000825846626
-0.006725653540
0.008087757044
0.001575541799
0.007750381716
0.004634106066
-0.000480331946
-0.002874799771
-0.005300654564
-0.007057592273
0.008250042796
0.001969236415
0.001578564756
-0.004658921622
0.004199305084
0.004445213359
-0.011245007627
0.009700931609
0.004113551695
-0.008630095050
0.006204078905
-0.002465138910
0.004235395230
0.009915395640
0.009614005685
0.008113070391
-0.004481284879
0.010272029787
0.003632959211
-0.004238582216
-0.008785892278
0.007997148670
-0.001036653877
-0.003783375025
0.000278352964
-0.002742192941
0.001304846373
-0.002029875992
-0.005041744094
0.010287111625
-0.009474023245
-0.009493064135
-0.000511422055
0.007397091482
0.004406651482
-0.000840472407
-0.004354582168
0.006703624967
0.007220722735
0.004003956448
0.000966528023
-0.009688388556
-0.000587086310
0.002837932669
-0.008049208671
0.003460793523
-0.005504079163
-0.000263850961
-0.009651445784
-0.003134944011
-0.007993974723
0.008849654347
0.007864064537
-0.004333899822
-0.007298897021
0.005262926687
0.008368887939
0.004862776492
-0.000202763811
-0.002931409283
0.004128402099
0.004315022379
-0.010636144318
-0.009637022391
-0.002337774960
0.007706119679
-0.001167009817
0.001446845941
0.006097035948
0.006530839950
-0.002584369620
0.003650190774
-0.006770731416
0.007170698140
0.009312034585
0.010035818443
-0.006025215611
-0.004788706079
-0.003251205431
-0.009224659763
0.005731579382
0.004619665444
-0.006949172355
0.009998449124
0.010150591843
-0.002923037624
-0.009106091224
0.010368739255
-0.002406783635
0.009415643290
-0.009310537949
0.005823433865
0.000274423655
-0.009883991443
-0.000516756845
-0.006979258265
0.010134208947
0.005884225015
0.001907275291
0.009509768337
-0.008686177433
-0.009184844792
-0.009737208486
0.001782500185
0.002781677758
0.008999601007
-0.010204371996
0.005507425405
-0.001757904189
0.001015573856
-0.009026668966
-0.010016583838
-0.006657018792
-0.009608865716
0.001110749319
0.001214330434
-0.004847484641
-0.006344511639
-0.004831834696
-0.001663855743
0.006402619183
-0.004210225772
0.002881444292
0.005858215969
0.003715717234
0.010945671238
-0.004972925875
0.001913456363
0.005810146686
0.010028718971
0.000053881555
0.002587298397
0.000666967651
-0.007300645579
0.000537949265
-0.005731937010
-0.004758634139
0.004446785897
0.006851233076
0.005655220710
-0.007163954899
-0.009538602084
-0.006143766921
0.004472524393
0.006048519164
-0.003647477832
-0.010324594565
0.000011293831
0.001820637030
0.002461014083
-0.004135269672
-0.005423393566
0.009226339869
-0.010605433024
0.008974000812
0.000212291110
0.007284304127
0.004855681211
-0.004005956464
-0.010392528959
-0.000651663635
0.003212519689
0.008693520911
0.009895311669
-0.010966337286
0.002568038413
-0.003599737305
0.006755615119
-0.001111442572
0.006784535479
0.010019923560
-0.003049243242
0.001840118668
0.003388899844
-0.009613570757
-0.001532957423
-0.010307833552
0.003560352372
-0.007067200262
-0.009268195368
0.007661572192
0.003859100165
-0.007740326226
0.005123404320
-0.005325422157
0.001509002177
-0.000234016115
-0.001322055119
-0.009511961602
-0.001456634258
-0.000959032448
-0.005019485950
0.004337633029
-0.000775886117
0.008293174207
0.001033847337
0.008480373770
-0.000231643557
0.000434139511
-0.001871865010
0.009354710579
-0.005406155251
0.001849016175
0.001528144348
0.005658254959
-0.002435851144
0.003140695859
0.010073781013
0.008940460160
-0.010892965831
0.010776502080
0.008651657030
0.000074254458
0.009370986372
0.003457892453
0.009795726277
0.003267263528
-0.008420990780
0.005957519636
0.005607244093
-0.001287228428
-0.006209359970
-0.009414239787
-0.003066195175
0.001906220918
0.007251990493
-0.007245784160
-0.004703875631
-0.004102289211
-0.000218265952
0.008451404050
0.002869582735
-0.004408907145
0.003733257996
0.004975286778
0.001869471394
0.008663996123
0.005116411950
0.001931377104
-0.005456334911
-0.000430267944
0.002106572269
0.001426544040
0.009092505090
-0.006518519949
-0.010247852653
-0.004470624961
-0.000894994882
-0.005615437869
0.001380058238
0.004574770574
-0.005857843906
0.006260755006
0.001171726384
-0.010390373878
0.010979147628
0.002422987251
-0.006538217422
-0.006533185951
-0.006025471259
0.007370020729
0.006407428999
0.006182533689
0.004832028877
0.002742154291
-0.003162977751
-0.005394896958
-0.007116016466
0.000400818710
0.003107505850
-0.007388893981
-0.002301386558
-0.010202017613
-0.005495094694
0.003210176248
0.003050733823
0.001930556376
-0.008242615499
0.000651319104
0.006939591374
0.009938046336
0.010889721103
-0.007111808751
-0.010209236294
0.006743672304
-0.004806810990
-0.004360537045
0.006834015716
0.010653595440
0.006744959857
-0.008007012308
-0.002495696535
0.008315845393
0.006679959595
-0.010755994357
-0.007790775504
0.010124821216
0.005568769760
0.004686196800
0.009541441686
0.008024360053
0.009807862341
0.004468222149
0.010055689141
0.008660408668
0.005817364436
-0.009305609390
-0.000365458080
-0.010640924796
-0.009632652625
-0.005221214145
-0.005863959435
0.009549651295
0.010744749568
0.007229782175
0.003811254399
0.008074165322
-0.006246089935
-0.007391352672
0.004161334597
0.010588209145
0.007207377814
0.009237030521
0.004791687243
-0.006926259957
0.001992499223
0.010122566484
-0.006929905154
0.007884010673
-0.005653296132
0.003847687272
-0.000525261974
-0.006210669875
0.010650717653
0.005011352245
0.007257283200
0.003534656949
-0.007429407444
-0.010993626900
0.006604878698
0.006377246697
-0.004158769734
0.007811995689
0.006899808068
0.001507884008
0.002110769972
-0.010085424408
-0.001298412681
0.003626958933
-0.005193023942
0.007654680405
0.010821761563
-0.009172678925
0.006635086611
-0.010604827665
-0.005720102694
-0.007787041366
0.010321772657
0.004137726501
-0.006630165968
0.003070974257
0.000061226230
0.001750724739
0.003842008533
0.003878199030
-0.005831443239
-0.005439016037
-0.009720797651
0.006434630137
-0.003035794478
0.005694837775
-0.001502714236
-0.003003522055
-0.003212321782
-0.009252095595
0.004324604291
-0.003091982333
0.005520232487
0.010137762874
0.001629012171
-0.006457129959
-0.003210645635
0.008589526638
0.004725028761
0.003736999584
0.000596283004
0.004699820187
0.006451807916
-0.007521945052
0.008358133957
-0.001726849703
-0.005501157604
0.007124579977
0.010589155369
-0.002181153046
-0.006508497521
-0.006962810643
-0.000170834290
-0.002049036324
-0.003538936842
0.003860915313
-0.010264174081
0.001102575799
0.009972397238
-0.002888893709
0.008298713714
-0.010766676627
0.007754640188
0.009607637301
0.010701331310
-0.003150813514
0.007140389644
-0.009219963104
0.010239992291
-0.003475281410
0.004544381518
-0.006553888321
0.007243540138
0.010155708529
-0.000908513961
0.009857233614
-0.005871111993
0.001683705836
-0.007203283254
-0.003814085387
0.008393696509
0.003998399246
0.006051492412
-0.001632949687
-0.011045237072
-0.004212521017
-0.004435316660
0.004144440871
0.001680605812
0.000894627592
-0.005957087968
0.003799438244
-0.001657538814
-0.000053186628
-0.007191675715
0.010557323694
-0.004149658605
0.000755185029
-0.004230233841
0.008810869418
-0.001633368665
0.005747938994
-0.010984031484
-0.004129928071
0.000082434977
-0.005382770672
-0.000784012780
-0.003868029919
-0.000682222308
0.008689566515
-0.006352015771
0.003057925496
0.002790733473
-0.002837303095
0.010867955163
0.008664988913
0.003573024413
0.009906020015
-0.003115857020
-0.006516402587
0.011046969332
-0.009705535136
0.009418154135
-0.002414894756
-0.002723353915
-0.006352238823
0.000326384150
0.009990876541
-0.002756205387
-0.004954751581
0.006541257259
0.001645594602
-0.005577806383
-0.003028427484
0.004689627793
0.010953420773
-0.000308294548
0.010481387377
0.005682626739
-0.008383059874
-0.007077926304
0.009689140134
-0.009774246253
-0.004113992676
0.008882819675
0.005847625900
0.002931167604
0.004129311536
0.001487089437
-0.006664583459
0.003854059614
-0.002399494173
-0.007758556865
0.004175364505
-0.005714043975
0.005488091148
-0.006668696180
-0.003910929896
-0.009919140488
0.005279685836
-0.001425232505
0.005747960880
-0.007692346349
0.006510773674
-0.002358996775
-0.009816237725
-0.002590692602
-0.004247957375
-0.008050812408
-0.008665081114
0.003697208362
0.004870089702
0.001800877857
0.007736267988
-0.006064909976
0.000836353167
0.010442472994
0.008292267099
-0.010652350262
-0.008869896643
-0.002468664432
-0.000586523674
0.010425016284
0.000103260332
0.009207191877
0.010665660724
-0.007474572398
-0.007455217652
0.007782038301
-0.008984919637
0.007053276524
-0.009439179674
0.009810545482
-0.003807606874
-0.007040604949
-0.003876716830
0.005715672858
-0.000675118004
0.002956307726
0.010430325754
-0.010869481601
-0.010842832737
0.008501049131
0.004248638637
0.000222072878
0.010662915185
-0.004671729635
-0.001684858231
0.009548132308
-0.008215276524
-0.007054848131
-0.009555571713
0.006615518592
-0.010346352123
-0.006257239264
-0.002932018368
0.009749875404
0.003021560842
-0.003702547634
0.008048201911
0.007622993551
0.000655534212
-0.000429813750
0.009736742824
0.005462277215
-0.005980949383
-0.006216248963
-0.009019272402
0.007585259620
-0.006638927385
0.002282722387
-0.006352005061
0.010670395568
-0.002462028293
0.007837801240
0.002246940508
-0.002420367440
-0.009902892634
-0.001974984072
0.005727814976
0.006374205928
0.000610252377
-0.008809392340
0.005258485209
-0.010828630067
-0.008295507170
-0.000733842666
0.008985171095
0.002000411507
-0.004139042925
0.007738974411
0.008331437595
0.007242206950
-0.003140317509
0.001067452366
-0.003705388401
0.003328413935
0.006088256836
0.001310902066
0.003571438603
-0.005904866848
0.001189861447
-0.001419565408
-0.010258745402
0.010762093589
-0.010789949447
0.004598754458
0.003499373328
0.005839371588
0.008258677088
-0.009208116680
-0.002657785080
-0.001080392860
-0.002981629688
-0.007051668130
-0.007703361101
0.008209683932
-0.004161984660
-0.008575171232
-0.010072221979
0.009287231602
0.005923800636
-0.001045224839
-0.005904076621
0.008753128350
-0.002417466603
-0.001951701939
-0.002583883703
0.009907450527
0.000886758033
0.004395168275
-0.006013992708
-0.005178278312
0.009787219577
0.002513923217
0.003745632013
-0.010387692600
0.008592054248
0.009695781395
0.003988886718
-0.008315226063
-0.007774460129
-0.007635986432
0.003489685245
-0.001849842956
-0.000592696306
-0.007411896717
-0.000295735459
-0.003995032050
-0.003745794529
-0.003381678369
-0.003983621020
-0.007747211028
0.005506628659
-0.011002878658
-0.007002469618
-0.005217495840
-0.002681143116
-0.003185997717
0.006912435871
0.003368074074
0.003386672819
-0.003837398253
0.009741954505
0.004405356012
0.010767580941
-0.004709332250
-0.000807296252
-0.005088025238
-0.009184294380
0.008153334260
0.005342287943
-0.006591348909
-0.010687075555
-0.005479061976
0.008333873935
-0.000627092028
-0.008614963852
