-0.054430093616
-0.173657283187
0.113253176212
-0.021665263921
0.140889793634
-0.180659368634
0.091492436826
0.061693176627
0.119296446443
-0.038424469531
0.170707955956
-0.149536132812
-0.017338799313
-0.089580751956
0.136111646891
-0.090350821614
-0.095234565437
0.071495719254
-0.009025408886
-0.061320550740
-0.128962054849
-0.133205190301
0.167771533132
0.132147565484
-0.104670830071
-0.130686983466
-0.076985657215
0.109735488892
0.125266447663
0.000547379721
-0.021792011335
0.150100171566
0.166947931051
0.171842083335
-0.138038173318
0.049861449748
-0.141167089343
0.043213162571
-0.068816050887
-0.069865770638
-0.013930428773
-0.199015527964
0.070927359164
-0.033399801701
0.177731782198
-0.089757077396
0.131687521935
-0.116318836808
-0.022106908262
-0.098049737513
-0.140811860561
-0.076430559158
-0.076903834939
-0.106866739690
-0.062014702708
0.092311114073
0.130392760038
0.079245828092
-0.162602797151
-0.129372239113
0.096666038036
0.043737839907
-0.146719485521
-0.107902593911
-0.100524060428
0.086510270834
0.126772463322
-0.073280178010
-0.141438111663
0.151765540242
0.182442456484
-0.013215976767
-0.092667378485
0.067206569016
-0.137751683593
0.134100690484
0.031084094197
-0.007487089839
0.078029349446
0.107415787876
0.051279287785
0.153724595904
-0.151836663485
-0.054558571428
-0.124214649200
-0.106778807938
-0.088160298765
0.189709827304
-0.156105980277
-0.088430672884
0.044954407960
-0.109196610749
0.085102595389
-0.179445952177
0.144766882062
0.070794545114
-0.161493837833
0.007033905014
-0.065643370152
0.033349011093
0.050702668726
0.057694349438
-0.164467200637
-0.011408613063
-0.089531764388
0.187292456627
-0.069224655628
-0.154968261719
-0.127983510494
-0.088718175888
-0.137491732836
0.003948845901
0.109139963984
-0.150732576847
0.142297774553
-0.149636089802
-0.054245360196
0.121931530535
0.022089790553
0.061222035438
-0.080066211522
-0.046095076948
-0.122631631792
0.128805980086
0.038788873702
-0.055478058755
0.127949029207
0.093463294208
