-0.013800358400
-0.007130236365
-0.019492572173
0.009590893984
-0.014549544081
0.016050055623
-0.021849999204
-0.009412131272
-0.004871768877
0.018119385466
-0.027130847797
-0.012251227163
-0.027745136991
0.014416313730
-0.022032134235
-0.002428981941
-0.012144560926
-0.020003633574
-0.027482410893
0.007525282912
-0.026934789494
-0.015140953474
0.028424708173
0.024810763076
-0.017811590806
0.016413690522
-0.002932809293
-0.013117970899
0.028633723035
0.027876196429
-0.002003722591
0.018561568111
-0.024765295908
0.010546080768
-0.007227899972
0.024031177163
-0.028530195355
0.027175700292
0.002379114274
0.025192046538
0.027542302385
0.001072998391
-0.020113280043
-0.009452888742
-0.012375134043
0.013066532090
0.002952610608
0.002302797046
-0.017990494147
0.019150188193
0.004327869508
0.000830027275
0.022741790861
0.014934353530
0.000808002835
0.006134224590
-0.026594864205
0.005445155781
0.027312440798
0.017275199294
-0.024656319991
0.004853246268
0.015765853226
0.016551870853
0.009115926921
0.004077611957
-0.024460300803
-0.003941760398
0.016000228003
0.004392613191
0.012881001458
0.023779937997
-0.029852710664
-0.016576677561
-0.029590280727
0.009078271687
-0.025594726205
0.029375175014
0.028500540182
-0.014444917440
-0.001761358464
-0.008496048860
-0.025727229193
0.026124246418
0.021228846163
-0.004309101962
0.011972123757
0.026882156730
-0.015570425428
-0.008001933806
-0.025295604020
0.006301253568
-0.004129603039
0.013371238485
-0.014425545931
0.018750997260
-0.004570289981
0.022410616279
-0.009981732816
-0.007800953463
0.011581103317
0.014897043817
0.017825301737
0.007821957581
-0.022176392376
0.006200580392
-0.008213769644
0.028450068086
0.020857471973
-0.013692552224
-0.027141150087
0.016546886414
-0.010141189210
-0.028938356787
0.028629302979
0.003223596374
-0.024880262092
-0.009021365084
-0.019719138741
-0.001943516894
-0.021638596430
0.020894980058
-0.024552056566
-0.028703546152
0.011864261702
0.003239574376
-0.004457951523
-0.009051336907
-0.021479927003
-0.007026930340
0.000080215621
-0.004112122115
-0.022411806509
0.002138347132
0.015370643698
-0.014128366485
-0.024945965037
0.005062387791
0.009601127356
-0.000163057644
-0.007871224545
-0.016861736774
-0.014050978236
0.010532081127
0.018905449659
-0.013756673783
0.010490855202
0.010454532690
-0.019544821233
-0.003404635936
0.024603325874
0.003734887345
0.010203901678
-0.022609047592
-0.001183585729
-0.005404534750
0.012472214177
0.012896034867
-0.001701918198
-0.022778181359
0.008885081857
0.022518170998
0.024890197441
-0.006184912752
-0.008571397513
0.018767353147
0.001898722956
-0.009178615175
0.026590703055
0.005297106225
0.004936843179
-0.003581374884
-0.009593839757
0.022425692528
-0.014774871990
-0.016857091337
0.020552964881
0.028841299936
0.023502845317
0.003178348998
-0.006502059288
0.023266058415
-0.022920839489
-0.010441286489
0.009108869359
-0.029588071629
0.002629490336
-0.008721563965
-0.009878907353
0.026254657656
-0.001554998918
-0.016048351303
0.022456752136
-0.003293120069
0.002170829335
-0.001466921298
0.012047220953
0.026893751696
0.010838154703
0.001973296050
0.004206211306
0.008790446445
0.007913421839
0.015299919993
0.024970624596
-0.002473856322
0.003425954841
0.001413687365
-0.013239382766
0.013443654403
0.016034036875
-0.019700460136
-0.003145404626
0.018638217822
-0.018888860941
-0.024291737005
0.006598240230
-0.009533507749
-0.025089269504
0.022504959255
-0.027482600883
0.003461831249
-0.016038490459
-0.002669454319
0.004059989471
0.001831129892
-0.001285184990
-0.023739999160
0.027225822210
0.014086479321
-0.012549256906
-0.013786996715
0.002738782205
-0.026527659968
0.027130387723
-0.001406390104
0.006069213152
-0.023475928232
0.016321297735
0.017221227288
0.003325196914
-0.021335687488
0.020633775741
-0.005091639701
0.022269330919
-0.017525400966
0.014764909633
0.026893649250
-0.015909686685
0.025972766802
-0.012885221280
0.003071059007
0.019319226965
-0.029092799872
-0.003335325979
-0.018859958276
